{"learner":{"attributes":{"best_iteration":"249","best_ntree_limit":"250","scikit_learn":"{\"use_label_encoder\": false, \"n_estimators\": 250, \"objective\": \"binary:logistic\", \"max_depth\": 7, \"learning_rate\": 0.2, \"verbosity\": null, \"booster\": null, \"tree_method\": null, \"gamma\": null, \"min_child_weight\": null, \"max_delta_step\": null, \"subsample\": null, \"colsample_bytree\": null, \"colsample_bylevel\": null, \"colsample_bynode\": null, \"reg_alpha\": null, \"reg_lambda\": null, \"scale_pos_weight\": 31.302631578947366, \"base_score\": null, \"missing\": NaN, \"num_parallel_tree\": null, \"random_state\": null, \"n_jobs\": 6, \"monotone_constraints\": null, \"interaction_constraints\": null, \"importance_type\": null, \"gpu_id\": null, \"validate_parameters\": null, \"predictor\": null, \"enable_categorical\": false, \"kwargs\": {\"eval_metric\": \"logloss\"}, \"classes_\": [0, 1], \"n_classes_\": 2, \"_estimator_type\": \"classifier\"}"},"feature_names":[],"feature_types":[],"gradient_booster":{"model":{"gbtree_model_param":{"num_trees":"250","size_leaf_vector":"0"},"tree_info":[0,0,0,0,0,0,0,0,0,0,0,0,0,0,0,0,0,0,0,0,0,0,0,0,0,0,0,0,0,0,0,0,0,0,0,0,0,0,0,0,0,0,0,0,0,0,0,0,0,0,0,0,0,0,0,0,0,0,0,0,0,0,0,0,0,0,0,0,0,0,0,0,0,0,0,0,0,0,0,0,0,0,0,0,0,0,0,0,0,0,0,0,0,0,0,0,0,0,0,0,0,0,0,0,0,0,0,0,0,0,0,0,0,0,0,0,0,0,0,0,0,0,0,0,0,0,0,0,0,0,0,0,0,0,0,0,0,0,0,0,0,0,0,0,0,0,0,0,0,0,0,0,0,0,0,0,0,0,0,0,0,0,0,0,0,0,0,0,0,0,0,0,0,0,0,0,0,0,0,0,0,0,0,0,0,0,0,0,0,0,0,0,0,0,0,0,0,0,0,0,0,0,0,0,0,0,0,0,0,0,0,0,0,0,0,0,0,0,0,0,0,0,0,0,0,0,0,0,0,0,0,0,0,0,0,0,0,0,0,0,0,0,0,0,0,0,0,0,0,0],"trees":[{"base_weights":[-6.412603E-9,-4.499043E-1,1.298638E0,-1.072492E0,-9.44965E-2,1.3687774E0,-1.9245284E0,-1.3608286E-1,-1.5546314E0,-1.3165435E0,1.1050367E-1,-1.1253563E0,1.4493128E0,-1.3280045E0,7.691171E-1,-1.8157845E0,-4.0598255E-1,6.380177E-1,-1.8681479E0,-2.1089022E-1,8.551977E-1,4.99136E-1,-1.9223301E0,-1.8888888E0,1.500517E0,-1.9849341E0,2.1033378E-1,-1.9207921E0,1.0673485E0,-1.9030535E0,5.6866336E-1,-1.5679228E0,6.8740255E-1,-1.9090909E0,1.7252421E0,-1.991684E0,5.469182E-1,-1.9899244E0,9.61495E-2,-1.5143666E0,1.1695583E0,1.4778427E0,-1.5789474E0,1.5297989E0,-1.8095238E0,1.5041682E0,-1.9101124E0,-1.8666667E0,1.2707107E0,-1.9968417E0,-1.0826431E-1,-1.7777778E0,1.7667817E0,8.161335E-1,-1.9698113E0,1.2384256E0,-1.8666667E0,1.1489891E0,1.8308291E0,1.773388E0,-1.6190476E0,7.062189E-1,-6.9003695E-1,-1.9650655E0,7.018948E-1,1.3146007E0,-1.9148936E0,1.5564167E0,-1.7894737E0,-1.5E0,1.8198341E0,-1.8139535E0,1.429038E0,1.5592606E0,-1.882353E0,-1.5E0,1.773388E0,1.4002732E0,-1.5294118E0,-1.2727273E0,1.773388E0,-1.9644444E0,9.5825756E-1,-1.3671836E0,3.0711538E-1,1.4778427E0,-1.4666667E0,-1.8461539E0,1.3975203E0,1.5869627E0,-2.7676597E-1],"categories":[],"categories_nodes":[],"categories_segments":[],"categories_sizes":[],"default_left":[true,true,true,true,true,true,false,true,true,true,true,true,true,true,true,true,true,true,true,true,true,true,false,false,true,false,true,false,true,true,true,true,true,false,true,false,true,false,true,true,true,false,false,true,false,true,false,false,true,false,true,false,false,true,false,true,false,true,false,false,false,true,true,false,true,true,false,true,false,false,false,false,false,false,false,false,false,false,false,false,false,false,false,false,false,false,false,false,false,false,false],"id":0,"left_children":[1,3,5,7,9,11,-1,13,15,17,19,21,23,25,27,29,31,33,35,37,39,41,-1,-1,43,-1,45,-1,47,49,51,53,55,-1,57,-1,59,-1,61,63,65,-1,-1,67,-1,69,-1,-1,71,-1,73,-1,-1,75,-1,77,-1,79,-1,-1,-1,81,83,-1,85,87,-1,89,-1,-1,-1,-1,-1,-1,-1,-1,-1,-1,-1,-1,-1,-1,-1,-1,-1,-1,-1,-1,-1,-1,-1],"loss_changes":[2.7810908E3,7.8215015E2,2.795166E2,5.797706E2,5.642198E2,2.4252173E2,0E0,4.7328638E2,2.536123E2,3.500036E2,4.6188794E2,5.025521E1,2.0148657E2,1.9172296E2,2.021342E2,1.4477832E2,2.0225995E2,2.0255415E2,7.644464E1,7.366928E2,4.351227E2,2.9435612E1,0E0,0E0,1.13763916E2,0E0,1.6076913E2,0E0,1.367204E2,1.1195923E2,7.38492E1,7.545572E1,1.1810801E2,0E0,9.9668884E-1,0E0,3.7606575E1,0E0,5.5245593E2,6.98772E1,2.3255115E2,0E0,0E0,1.03125244E2,0E0,3.715602E1,0E0,0E0,1.0572217E2,0E0,1.0396618E2,0E0,0E0,2.8879093E1,0E0,3.2728653E1,0E0,1.824867E1,0E0,0E0,0E0,4.3838562E2,3.4028345E2,0E0,2.290777E1,1.3144476E2,0E0,6.355713E1,0E0,0E0,0E0,0E0,0E0,0E0,0E0,0E0,0E0,0E0,0E0,0E0,0E0,0E0,0E0,0E0,0E0,0E0,0E0,0E0,0E0,0E0,0E0],"parents":[2147483647,0,0,1,1,2,2,3,3,4,4,5,5,7,7,8,8,9,9,10,10,11,11,12,12,13,13,14,14,15,15,16,16,17,17,18,18,19,19,20,20,21,21,24,24,26,26,28,28,29,29,30,30,31,31,32,32,34,34,36,36,38,38,39,39,40,40,43,43,45,45,48,48,50,50,53,53,55,55,57,57,61,61,62,62,64,64,65,65,67,67],"right_children":[2,4,6,8,10,12,-1,14,16,18,20,22,24,26,28,30,32,34,36,38,40,42,-1,-1,44,-1,46,-1,48,50,52,54,56,-1,58,-1,60,-1,62,64,66,-1,-1,68,-1,70,-1,-1,72,-1,74,-1,-1,76,-1,78,-1,80,-1,-1,-1,82,84,-1,86,88,-1,90,-1,-1,-1,-1,-1,-1,-1,-1,-1,-1,-1,-1,-1,-1,-1,-1,-1,-1,-1,-1,-1,-1,-1],"split_conditions":[-5.3946845E-2,3.105593E-2,1.0540947E-1,-8.246823E-2,-1.0574861E-2,-3.4553386E-2,-3.8490567E-1,1.2227549E-1,-3.5518628E-2,1.2362912E-2,-2.6437137E-2,-4.448849E-2,5.908737E-3,-4.2804547E-2,-6.681508E-2,1.0812135E-1,-1.2015084E-2,4.314713E-2,-6.1615007E-3,-3.2358646E-2,7.115666E-2,-8.7660864E-2,-3.8446602E-1,-3.7777779E-1,1.7271088E-2,-3.969868E-1,-2.2951584E-2,-3.8415843E-1,3.4901038E-2,8.072934E-2,3.0592643E-3,-8.887611E-2,3.2729246E-2,-3.8181818E-1,1.4501639E-2,-3.983368E-1,-9.971116E-3,-3.979849E-1,-2.2545362E-2,4.849656E-2,5.3314783E-2,2.9556856E-1,-3.157895E-1,-2.451972E-2,-3.6190477E-1,-6.368017E-2,-3.8202247E-1,-3.7333333E-1,-6.1945923E-2,-3.9936835E-1,-8.1415616E-2,-3.5555556E-1,3.5335633E-1,2.662544E-2,-3.9396226E-1,2.4157682E-2,-3.7333333E-1,8.311791E-3,3.6616585E-1,3.5467762E-1,-3.2380953E-1,-4.299728E-2,-6.1076976E-2,-3.930131E-1,5.2709E-2,-3.646914E-2,-3.8297874E-1,1.194178E-1,-3.5789475E-1,-3E-1,3.6396682E-1,-3.627907E-1,2.858076E-1,3.1185213E-1,-3.764706E-1,-3E-1,3.5467762E-1,2.8005466E-1,-3.0588236E-1,-2.5454545E-1,3.5467762E-1,-3.9288887E-1,1.9165151E-1,-2.7343673E-1,6.1423074E-2,2.9556856E-1,-2.9333335E-1,-3.6923078E-1,2.7950406E-1,3.1739256E-1,-5.5353194E-2],"split_indices":[2438,858,88,827,1740,707,0,2518,2342,865,807,1280,383,2237,2502,1551,1181,2374,10,1531,2249,4,0,0,939,0,425,0,235,1493,486,4,2485,0,1281,0,1280,0,1420,1286,1808,0,0,982,0,1443,0,0,2390,0,71,0,0,1281,0,25,0,0,0,0,0,497,1715,0,3,2450,0,218,0,0,0,0,0,0,0,0,0,0,0,0,0,0,0,0,0,0,0,0,0,0,0],"split_type":[0,0,0,0,0,0,0,0,0,0,0,0,0,0,0,0,0,0,0,0,0,0,0,0,0,0,0,0,0,0,0,0,0,0,0,0,0,0,0,0,0,0,0,0,0,0,0,0,0,0,0,0,0,0,0,0,0,0,0,0,0,0,0,0,0,0,0,0,0,0,0,0,0,0,0,0,0,0,0,0,0,0,0,0,0,0,0,0,0,0,0],"sum_hessian":[4.758E3,3.5342402E3,1.2237599E3,1.283625E3,2.2506152E3,1.1982599E3,2.55E1,4.367171E2,8.469079E2,3.225296E2,1.9280856E3,3.7075657E1,1.1611842E3,1.8830263E2,2.4841447E2,6.895526E2,1.5735526E2,7.095395E1,2.5157565E2,1.3473257E3,5.807599E2,1.2325658E1,2.475E1,1.7E1,1.1441842E3,1.3175E2,5.655263E1,2.425E1,2.2416447E2,6.654013E2,2.4151316E1,7.607566E1,8.12796E1,2.1E1,4.995395E1,2.395E2,1.2075658E1,1.975E2,1.1498257E3,6.757566E1,5.131842E2,8.575658E0,3.75E0,1.1346842E3,9.5E0,3.530263E1,2.125E1,1.4E1,2.1016447E2,6.3225E2,3.3151314E1,8E0,1.6151316E1,1.0825658E1,6.525E1,6.72796E1,1.4E1,9.575658E0,4.037829E1,7.825658E0,4.25E0,6.474868E2,5.023388E2,5.625E1,1.1325658E1,4.906842E2,2.25E1,1.1261842E3,8.5E0,3E0,3.230263E1,9.75E0,2.0041447E2,1.7151316E1,1.6E1,3E0,7.825658E0,6.40296E1,3.25E0,1.75E0,7.825658E0,5.525E1,5.922368E2,2.9895395E2,2.0338487E2,8.575658E0,2.75E0,1.2E1,4.786842E2,1.1078585E3,1.8325657E1],"tree_param":{"num_deleted":"0","num_feature":"2560","num_nodes":"91","size_leaf_vector":"0"}},{"base_weights":[-2.1469267E-3,9.7998816E-1,-4.113097E-1,-7.228277E-2,1.1908588E0,-2.0175345E-1,-1.3551811E0,-1.4554552E0,5.985084E-1,-1.6836278E0,1.2555797E0,3.3915168E-1,-5.5914515E-1,-1.5151182E0,2.1696348E-1,1.2574264E-1,-1.812406E0,1.0681598E0,-1.9352168E0,-1.8776711E0,1.288534E0,-1.2373284E0,5.9855056E-1,3.4306047E-3,-1.1657144E0,4.021416E-1,-1.6071283E0,-1.6593146E0,1.6478943E0,1.2389356E0,-1.5385382E0,-1.3894681E0,1.16345E0,-5.354228E-1,1.3282473E0,3.206682E-1,-1.7558696E0,-5.948807E-1,8.1615674E-1,3.2054532E-1,-1.2223521E0,-3.9078155E-1,-1.6353517E0,1.6370362E0,-1.6079788E0,-1.709203E0,-2.896039E-1,-1.6533763E0,1.2320797E0,1.6161629E0,-1.7128743E0,1.3551792E0,-1.5522393E0,-1.7310536E0,1.4257929E0,1.6023507E0,-1.4581839E0,8.699235E-1,-1.6823807E0,4.8763657E-1,-1.2914172E0,-1.6977152E0,1.1044133E0,-1.2281911E0,4.9332964E-1,-4.4674647E-1,-1.7428994E0,1.2660877E0,-1.7076966E0,1.3932326E0,8.6422026E-1,1.4187111E0,2.8906968E-1,-9.875552E-1,1.7068874E0,-1.581717E-1,-1.7156776E0,9.076099E-1,-1.8294067E0,7.3368144E-1,-4.5674855E-1,1.0546203E0,-1.7085216E0,1.5228633E0,-1.3592074E0,-1.8092948E0,3.9102235E-1,8.644009E-1,-1.7280087E0,1.4137881E0,-1.7530408E0,-1.1357921E0,1.6081047E0],"categories":[],"categories_nodes":[],"categories_segments":[],"categories_sizes":[],"default_left":[true,true,true,true,true,true,true,true,true,false,true,true,true,true,true,true,false,true,false,false,true,true,true,true,true,true,true,false,false,false,false,false,true,true,true,true,false,true,true,true,true,true,true,false,false,false,true,false,true,false,false,true,false,false,false,true,true,true,false,true,true,false,true,true,true,true,false,true,false,false,false,false,false,false,false,false,false,false,false,false,false,false,false,false,false,false,false,false,false,false,false,false,false],"id":1,"left_children":[1,3,5,7,9,11,13,15,17,-1,19,21,23,25,27,29,-1,31,-1,-1,33,35,37,39,41,43,45,-1,-1,-1,-1,-1,47,49,51,53,-1,55,57,59,61,63,65,-1,-1,-1,67,-1,69,-1,-1,71,-1,-1,-1,73,75,77,-1,79,81,-1,83,85,87,89,-1,91,-1,-1,-1,-1,-1,-1,-1,-1,-1,-1,-1,-1,-1,-1,-1,-1,-1,-1,-1,-1,-1,-1,-1,-1,-1],"loss_changes":[1.8647142E3,3.0289233E2,6.476281E2,2.1311855E2,2.1362024E2,5.1860034E2,1.499248E2,4.2558914E1,1.8622516E2,0E0,1.1728223E2,4.372995E2,5.511575E2,9.593005E1,1.5257712E2,2.9229332E1,0E0,3.2342712E1,0E0,0E0,8.049463E1,1.2268613E2,2.387276E2,3.265058E2,2.8220813E2,6.601546E1,6.884607E1,0E0,0E0,0E0,0E0,0E0,2.6559433E1,6.403465E1,8.575171E1,8.9975044E1,0E0,2.7179608E2,1.0575397E2,1.8036803E2,1.9282504E2,2.187055E2,6.1041138E1,0E0,0E0,0E0,8.660725E1,0E0,6.1709137E0,0E0,0E0,7.1982056E1,0E0,0E0,0E0,1.2663239E1,3.4042603E1,7.9038025E1,0E0,1.4099889E2,6.3400536E1,0E0,3.288681E1,1.4332875E2,1.2019748E2,1.0327067E2,0E0,1.7293015E1,0E0,0E0,0E0,0E0,0E0,0E0,0E0,0E0,0E0,0E0,0E0,0E0,0E0,0E0,0E0,0E0,0E0,0E0,0E0,0E0,0E0,0E0,0E0,0E0,0E0],"parents":[2147483647,0,0,1,1,2,2,3,3,4,4,5,5,6,6,7,7,8,8,10,10,11,11,12,12,13,13,14,14,15,15,17,17,20,20,21,21,22,22,23,23,24,24,25,25,26,26,32,32,33,33,34,34,35,35,37,37,38,38,39,39,40,40,41,41,42,42,46,46,48,48,51,51,55,55,56,56,57,57,59,59,60,60,62,62,63,63,64,64,65,65,67,67],"right_children":[2,4,6,8,10,12,14,16,18,-1,20,22,24,26,28,30,-1,32,-1,-1,34,36,38,40,42,44,46,-1,-1,-1,-1,-1,48,50,52,54,-1,56,58,60,62,64,66,-1,-1,-1,68,-1,70,-1,-1,72,-1,-1,-1,74,76,78,-1,80,82,-1,84,86,88,90,-1,92,-1,-1,-1,-1,-1,-1,-1,-1,-1,-1,-1,-1,-1,-1,-1,-1,-1,-1,-1,-1,-1,-1,-1,-1,-1],"split_conditions":[3.931798E-2,1.0809111E-2,-3.4502894E-2,8.26688E-3,-3.454426E-2,-1.3370981E-2,7.326995E-2,-1.3612154E-1,1.9104388E-1,-3.3672556E-1,-7.395019E-3,2.1692384E-3,-8.358827E-2,3.9035235E-2,6.1779357E-2,-4.448849E-2,-3.624812E-1,3.1188983E-2,-3.8704336E-1,-3.7553424E-1,-2.037806E-2,4.059585E-2,1.2553768E-1,2.4358852E-2,4.1274104E-2,-6.7146435E-2,4.0112715E-3,-3.3186293E-1,3.2957885E-1,2.4778712E-1,-3.0770764E-1,-2.7789363E-1,-5.340811E-3,-6.5992974E-2,-2.451972E-2,-6.5324165E-2,-3.5117394E-1,5.1662993E-2,-1.3136138E-1,-2.0233374E-2,-1.5326384E-2,-6.085887E-3,1.2408439E-2,3.2740724E-1,-3.2159576E-1,-3.418406E-1,-9.511711E-2,-3.3067527E-1,6.226804E-2,3.232326E-1,-3.4257486E-1,2.7092652E-2,-3.1044787E-1,-3.4621072E-1,2.851586E-1,-6.405823E-2,5.2346736E-2,4.9412966E-2,-3.3647615E-1,5.336041E-2,-2.2585876E-2,-3.3954304E-1,1.14686295E-1,3.9054118E-2,-2.8834838E-2,1.8641246E-2,-3.4857988E-1,-3.6009823E-3,-3.4153932E-1,2.7864653E-1,1.7284405E-1,2.8374222E-1,5.781394E-2,-1.9751105E-1,3.4137747E-1,-3.1634342E-2,-3.4313554E-1,1.8152198E-1,-3.6588135E-1,1.467363E-1,-9.134971E-2,2.1092406E-1,-3.4170434E-1,3.0457267E-1,-2.718415E-1,-3.6185896E-1,7.8204475E-2,1.7288019E-1,-3.4560177E-1,2.827576E-1,-3.5060817E-1,-2.2715843E-1,3.2162094E-1],"split_indices":[1823,383,782,1045,707,204,2303,29,1739,0,678,2004,1390,1616,577,1280,0,442,0,0,1281,1480,1510,654,2459,1,2466,0,0,0,0,0,1281,1,982,309,0,3,228,1362,2347,496,1451,0,0,0,302,0,1922,0,0,868,0,0,0,1291,3,1572,0,810,5,0,12,2134,2361,421,0,1294,0,0,0,0,0,0,0,0,0,0,0,0,0,0,0,0,0,0,0,0,0,0,0,0,0],"split_type":[0,0,0,0,0,0,0,0,0,0,0,0,0,0,0,0,0,0,0,0,0,0,0,0,0,0,0,0,0,0,0,0,0,0,0,0,0,0,0,0,0,0,0,0,0,0,0,0,0,0,0,0,0,0,0,0,0,0,0,0,0,0,0,0,0,0,0,0,0,0,0,0,0,0,0,0,0,0,0,0,0,0,0,0,0,0,0,0,0,0,0,0,0],"sum_hessian":[4.638285E3,1.3636495E3,3.2746355E3,2.2775934E2,1.1358903E3,2.6806887E3,5.939468E2,7.400048E1,1.5375887E2,2.446133E1,1.111429E3,1.0665452E3,1.6141436E3,5.391358E2,5.4811005E1,1.3748037E1,6.0252445E1,1.3020288E2,2.3555988E1,1.0985281E1,1.1004436E3,1.5016388E2,9.1638135E2,8.379567E2,7.7618677E2,2.4534172E1,5.146016E2,2.3646032E1,3.1164972E1,8.391057E0,5.356981E0,4.353012E0,1.2584986E2,2.3183577E1,1.07726E3,3.759336E1,1.1257052E2,1.4105434E2,7.7532697E2,6.663166E2,1.7164015E2,2.9358463E2,4.8260214E2,1.53126335E1,9.2215395E0,4.7732385E2,3.7277767E1,2.4440815E0,1.2340578E2,8.068046E0,1.511553E1,1.0678058E3,9.454213E0,1.2962121E1,2.463124E1,3.9546562E1,1.0150778E2,7.596321E2,1.569492E1,6.043671E2,6.1949425E1,1.42747E2,2.8893154E1,1.5057465E2,1.4300998E2,4.047136E1,4.421308E2,1.7827566E1,1.9450203E1,8.3874435E1,3.953135E1,1.0074396E3,6.036626E1,1.2065759E0,3.8339985E1,1.7048597E1,8.445918E1,7.498272E2,9.804868E0,4.7963007E2,1.2473706E2,9.120728E0,5.2828697E1,2.5024551E1,3.8686023E0,1.107215E2,3.985315E1,1.230633E2,1.9946676E1,1.6660204E1,2.3811157E1,1.9328554E0,1.5894711E1],"tree_param":{"num_deleted":"0","num_feature":"2560","num_nodes":"93","size_leaf_vector":"0"}},{"base_weights":[-4.8895995E-3,-3.2236806E-1,9.2717624E-1,-5.2759373E-1,3.6447972E-1,9.918052E-1,-1.665292E0,-2.612765E-1,-1.2113706E0,8.7327635E-1,-4.783549E-1,1.038137E0,-1.5339231E0,-1.2626272E0,-3.797506E-2,-1.4445262E0,-4.022452E-1,-1.6732914E0,1.0190687E0,3.1877345E-1,-1.614965E0,1.1165816E0,-2.4160637E-1,4.342636E-1,-1.4661717E0,1.3217933E-1,-1.0693996E0,-1.5234495E0,1.0233833E-1,4.8144653E-1,-1.6378169E0,1.1739752E0,-4.664313E-1,-1.7155062E0,8.649125E-1,3.1088975E-1,1.2034116E0,-1.7843359E0,6.106453E-1,1.3085562E0,-1.4617641E0,2.3526305E-1,-1.5422187E0,2.7079955E-1,-1.0575188E0,-1.6161609E0,1.1963374E-1,-2.4712513E-1,-1.5693235E0,-1.4774342E0,1.2929903E0,9.3172055E-1,-1.6138337E0,-1.576842E0,1.229799E0,-1.6538134E0,1.3502223E0,-1.6248312E0,1.235533E0,6.4633554E-1,-2.020302E0,-1.4669874E0,1.2276188E0,-1.3781571E0,1.3080649E0,1.4840875E0,-9.8361605E-1,-1.3681757E0,1.408144E0,-1.5347737E0,3.692627E-1,-1.6076317E0,5.842928E-1,-1.4645811E0,-1.7528728E0,-1.453056E0,6.6827315E-1,1.4370688E0,-1.4148687E0,-1.9552301E0,-1.5345004E0,1.1230592E0,-1.3521893E0,1.3350072E0,6.4735836E-1,-9.7848326E-1,1.6125101E0,-1.2681881E0,1.3233178E0,7.7669984E-1,-1.42589E0,-1.4607298E0,1.2395382E0],"categories":[],"categories_nodes":[],"categories_segments":[],"categories_sizes":[],"default_left":[true,true,true,true,true,true,false,true,true,true,true,true,false,true,true,true,true,false,true,true,false,true,true,true,true,true,true,true,true,true,false,true,true,false,true,true,true,false,true,true,false,true,false,true,true,true,true,true,true,false,false,true,false,false,true,false,true,false,true,true,false,false,true,false,false,false,false,false,false,false,false,false,false,false,false,false,false,false,false,false,false,false,false,false,false,false,false,false,false,false,false,false,false],"id":2,"left_children":[1,3,5,7,9,11,-1,13,15,17,19,21,-1,23,25,27,29,-1,31,33,-1,35,37,39,41,43,45,47,49,51,-1,53,55,-1,57,59,61,-1,63,65,-1,67,-1,69,71,73,75,77,79,-1,-1,81,-1,-1,83,-1,85,-1,87,89,-1,-1,91,-1,-1,-1,-1,-1,-1,-1,-1,-1,-1,-1,-1,-1,-1,-1,-1,-1,-1,-1,-1,-1,-1,-1,-1,-1,-1,-1,-1,-1,-1],"loss_changes":[1.3047267E3,4.637932E2,1.8935083E2,4.6089014E2,3.2513782E2,1.2957227E2,0E0,4.0781213E2,1.3329663E2,1.7714246E2,2.593549E2,1.0814197E2,0E0,1.1550098E2,2.620728E2,6.736536E1,1.7563281E2,0E0,1.0353876E2,1.8897202E2,0E0,7.0469604E1,8.376943E1,6.2236187E1,3.8813477E1,2.1171175E2,1.3766577E2,3.028418E1,5.3941135E1,9.0314255E1,0E0,6.42215E1,9.494392E1,0E0,1.2538323E2,7.9399796E1,6.087097E1,0E0,5.9020473E1,1.1692837E1,0E0,2.7468876E1,0E0,2.0484317E2,1.2195862E2,4.359131E-1,5.924601E1,4.0113266E1,3.7928467E0,0E0,0E0,3.5655663E1,0E0,0E0,2.3529175E1,0E0,1.22904625E1,0E0,2.738208E1,2.4896671E1,0E0,0E0,3.084607E1,0E0,0E0,0E0,0E0,0E0,0E0,0E0,0E0,0E0,0E0,0E0,0E0,0E0,0E0,0E0,0E0,0E0,0E0,0E0,0E0,0E0,0E0,0E0,0E0,0E0,0E0,0E0,0E0,0E0,0E0],"parents":[2147483647,0,0,1,1,2,2,3,3,4,4,5,5,7,7,8,8,9,9,10,10,11,11,13,13,14,14,15,15,16,16,18,18,19,19,21,21,22,22,23,23,24,24,25,25,26,26,27,27,28,28,29,29,31,31,32,32,34,34,35,35,36,36,38,38,39,39,41,41,43,43,44,44,45,45,46,46,47,47,48,48,51,51,54,54,56,56,58,58,59,59,62,62],"right_children":[2,4,6,8,10,12,-1,14,16,18,20,22,-1,24,26,28,30,-1,32,34,-1,36,38,40,42,44,46,48,50,52,-1,54,56,-1,58,60,62,-1,64,66,-1,68,-1,70,72,74,76,78,80,-1,-1,82,-1,-1,84,-1,86,-1,88,90,-1,-1,92,-1,-1,-1,-1,-1,-1,-1,-1,-1,-1,-1,-1,-1,-1,-1,-1,-1,-1,-1,-1,-1,-1,-1,-1,-1,-1,-1,-1,-1,-1],"split_conditions":[5.028219E-2,7.553839E-2,3.683451E-2,-3.036146E-2,-7.3022153E-3,5.880077E-2,-3.3305842E-1,-2.0744773E-2,6.4008324E-3,6.438659E-2,-1.6143084E-2,3.8456112E-2,-3.0678463E-1,8.65197E-2,4.8426233E-2,2.072752E-2,2.2491891E-2,-3.346583E-1,-5.5805203E-2,1.3691327E-2,-3.22993E-1,-7.69825E-2,5.7822272E-2,1.1169517E-2,-2.6002183E-4,-3.3926204E-2,4.6347976E-2,-5.8481053E-2,-4.1037813E-2,-1.350652E-2,-3.2756338E-1,-3.9589796E-2,9.503018E-3,-3.4310123E-1,2.9561566E-3,1.3041879E-3,6.307754E-2,-3.5686716E-1,-1.29769E-1,1.2681334E-2,-2.9235283E-1,1.5103702E-2,-3.0844375E-1,3.4008315E-3,5.7254016E-2,-3.0611898E-3,1.6665112E-2,-3.2371573E-2,3.3860732E-2,-2.9548684E-1,2.5859806E-1,-3.17524E-2,-3.2276675E-1,-3.1536838E-1,-6.2281482E-2,-3.3076268E-1,6.7846477E-3,-3.2496625E-1,5.554409E-3,-3.5260818E-3,-4.0406042E-1,-2.933975E-1,-1.9274361E-2,-2.7563143E-1,2.6161298E-1,2.968175E-1,-1.9672321E-1,-2.7363515E-1,2.8162882E-1,-3.0695474E-1,7.385254E-2,-3.2152635E-1,1.16858564E-1,-2.9291624E-1,-3.5057458E-1,-2.906112E-1,1.3365464E-1,2.8741378E-1,-2.8297374E-1,-3.9104602E-1,-3.0690008E-1,2.2461183E-1,-2.7043787E-1,2.6700145E-1,1.2947167E-1,-1.9569665E-1,3.2250202E-1,-2.5363764E-1,2.6466355E-1,1.5533997E-1,-2.85178E-1,-2.9214597E-1,2.4790764E-1],"split_indices":[1922,1052,1042,1486,2462,878,0,710,2496,2515,164,65,0,2368,2222,520,216,0,21,2027,0,794,1429,582,0,738,978,1299,1597,181,0,2333,1372,0,2168,1323,468,0,640,1281,0,1290,0,1137,1803,1526,1445,14,765,0,0,623,0,0,46,0,0,0,1428,965,0,0,111,0,0,0,0,0,0,0,0,0,0,0,0,0,0,0,0,0,0,0,0,0,0,0,0,0,0,0,0,0,0],"split_type":[0,0,0,0,0,0,0,0,0,0,0,0,0,0,0,0,0,0,0,0,0,0,0,0,0,0,0,0,0,0,0,0,0,0,0,0,0,0,0,0,0,0,0,0,0,0,0,0,0,0,0,0,0,0,0,0,0,0,0,0,0,0,0,0,0,0,0,0,0,0,0,0,0,0,0,0,0,0,0,0,0,0,0,0,0,0,0,0,0,0,0,0,0],"sum_hessian":[4.407178E3,3.2879106E3,1.1192676E3,2.53169E3,7.5622076E2,1.0926459E3,2.6621696E1,1.8230363E3,7.086536E2,4.715329E2,2.8468787E2,1.0735419E3,1.9103958E1,3.3156134E2,1.491475E3,5.4951996E2,1.5913367E2,2.4966337E1,4.4656656E2,1.6775638E2,1.169315E2,1.01165765E3,6.1884266E1,3.5390182E1,2.9617114E2,1.2810171E3,2.1045789E2,5.228581E2,2.6661858E1,9.3133865E1,6.599981E1,4.0458636E2,4.1980175E1,3.505204E1,1.3270433E2,9.886592E1,9.1279175E2,2.1632273E1,4.025199E1,2.4433361E1,1.09568205E1,1.2581677E1,2.8358948E2,1.1480249E3,1.3299217E2,1.439193E2,6.65386E1,1.836232E1,5.044958E2,1.1355016E1,1.5306842E1,7.7116844E1,1.6017023E1,7.5052505E0,3.9708112E2,2.54412E1,1.6538973E1,1.6756166E1,1.15948166E2,8.706105E1,1.1804867E1,7.664691E0,9.051271E2,1.01971445E1,3.0054848E1,2.3022844E1,1.4105159E0,5.2448983E0,7.336779E0,5.8613293E1,1.0894116E3,9.963038E1,3.3361794E1,7.380298E1,7.011632E1,1.6782536E1,4.9756065E1,7.4241304E0,1.09381895E1,3.7191925E1,4.6730386E2,7.162463E1,5.492208E0,3.3523456E2,6.1846573E1,1.3978326E0,1.514114E1,3.4721427E0,1.1247602E2,8.249637E1,4.564683E0,3.45883E0,9.016682E2],"tree_param":{"num_deleted":"0","num_feature":"2560","num_nodes":"93","size_leaf_vector":"0"}},{"base_weights":[-8.001841E-3,-2.8292063E-1,8.053882E-1,6.6723603E-1,-3.8907543E-1,1.0678169E0,3.8393244E-1,-1.0773929E0,1.0362993E0,-6.437158E-1,1.7942134E-1,1.1382301E0,-6.601881E-1,5.038399E-1,-1.3403623E0,-1.5350256E0,1.3782296E0,1.177584E0,-1.4820008E0,-4.5097268E-1,-1.3197771E0,-6.833561E-1,6.3999957E-1,6.9002104E-1,1.2394952E0,-1.4004147E0,9.8483765E-1,6.164832E-1,-7.6798683E-1,-1.502643E0,1.261019E0,-6.634452E-1,9.1230586E-2,1.7584084E-1,-1.4714408E0,2.4345437E-1,-1.4641945E0,8.4044343E-1,-1.1743062E0,-2.4669893E0,9.80918E-1,1.2515571E0,-1.0562016E0,-1.8794924E0,6.615136E-1,-1.5270809E0,4.8728257E-1,1.3086033E0,-1.2588574E0,-1.2646254E0,-4.0487835E-1,5.2390945E-1,-7.1137077E-1,-1.3289863E0,1.136914E0,-1.4241421E0,-1.7055684E0,-1.4722376E0,1.0653836E0,-1.5878692E0,1.0326099E0,-1.4428116E0,9.4245607E-1,-1.5355089E0,8.74658E-1,-1.7871321E0,1.0807067E0,6.0519886E-1,1.2728808E0,-1.3594092E0,7.0420873E-1,-1.155997E0,1.1797245E0,1.1420994E0,1.409574E0,-1.3969862E0,3.818589E-1,-6.1068755E-1,4.5421857E-1,-1.4733754E0,6.9845486E-1,-1.6540616E0,6.6261345E-1,1.2749584E0,-8.140496E-1,-1.8176277E0,-1.3150926E0,1.2413658E0,-1.3333958E0,-1.4907982E0,-2.0381763E0,1.0285945E0,-1.4998059E0,-1.0456471E0,1.2968012E0,1.1833812E0,5.515463E-1,1.1587662E0,-1.8545763E0,9.163392E-1,1.3005496E0,-5.501918E-1,7.7398473E-1],"categories":[],"categories_nodes":[],"categories_segments":[],"categories_sizes":[],"default_left":[true,true,true,true,true,true,true,true,true,true,true,true,true,true,false,false,false,true,false,true,true,true,true,true,true,false,false,true,true,false,true,true,true,true,true,true,true,true,true,false,true,true,false,false,true,false,true,true,false,true,true,true,true,false,true,false,true,false,true,true,false,false,true,false,true,false,true,true,true,false,true,false,false,false,false,false,false,false,false,false,false,false,false,false,false,false,false,false,false,false,false,false,false,false,false,false,false,false,false,false,false,false,false],"id":3,"left_children":[1,3,5,7,9,11,13,15,17,19,21,23,25,27,-1,-1,-1,29,-1,31,33,35,37,39,41,-1,-1,43,45,-1,47,49,51,53,55,57,59,61,63,-1,65,67,-1,-1,69,-1,71,73,-1,75,77,79,81,-1,83,-1,85,-1,87,89,-1,-1,91,-1,93,-1,95,97,99,-1,101,-1,-1,-1,-1,-1,-1,-1,-1,-1,-1,-1,-1,-1,-1,-1,-1,-1,-1,-1,-1,-1,-1,-1,-1,-1,-1,-1,-1,-1,-1,-1,-1],"loss_changes":[9.244159E2,3.1189212E2,1.1508966E2,2.0127512E2,4.0252203E2,7.898749E1,8.385026E1,6.3663525E1,9.32189E1,2.4960052E2,3.4246542E2,2.7203003E1,3.2805397E1,5.4462967E1,0E0,0E0,0E0,5.6458008E1,0E0,1.7236041E2,9.676251E1,2.1749611E2,2.052475E2,1.0911954E2,1.5250305E1,0E0,0E0,4.021617E1,3.038507E1,0E0,3.0085876E1,1.665387E2,1.4690515E2,5.9452682E1,1.8497925E0,1.9625192E2,5.196933E1,1.1930472E2,4.300776E1,0E0,3.1513863E1,6.1325073E0,0E0,0E0,3.0409683E1,0E0,1.5565033E1,2.3118286E0,0E0,7.086603E1,1.3340283E2,9.680631E1,1.9307953E2,0E0,7.767597E0,0E0,2.296753E-1,0E0,4.1302925E1,3.7670288E0,0E0,0E0,1.0364105E2,0E0,8.71184E0,0E0,4.997444E0,2.6524546E1,3.5822754E0,0E0,2.9742218E1,0E0,0E0,0E0,0E0,0E0,0E0,0E0,0E0,0E0,0E0,0E0,0E0,0E0,0E0,0E0,0E0,0E0,0E0,0E0,0E0,0E0,0E0,0E0,0E0,0E0,0E0,0E0,0E0,0E0,0E0,0E0,0E0],"parents":[2147483647,0,0,1,1,2,2,3,3,4,4,5,5,6,6,7,7,8,8,9,9,10,10,11,11,12,12,13,13,17,17,19,19,20,20,21,21,22,22,23,23,24,24,27,27,28,28,30,30,31,31,32,32,33,33,34,34,35,35,36,36,37,37,38,38,40,40,41,41,44,44,46,46,47,47,49,49,50,50,51,51,52,52,54,54,56,56,58,58,59,59,62,62,64,64,66,66,67,67,68,68,70,70],"right_children":[2,4,6,8,10,12,14,16,18,20,22,24,26,28,-1,-1,-1,30,-1,32,34,36,38,40,42,-1,-1,44,46,-1,48,50,52,54,56,58,60,62,64,-1,66,68,-1,-1,70,-1,72,74,-1,76,78,80,82,-1,84,-1,86,-1,88,90,-1,-1,92,-1,94,-1,96,98,100,-1,102,-1,-1,-1,-1,-1,-1,-1,-1,-1,-1,-1,-1,-1,-1,-1,-1,-1,-1,-1,-1,-1,-1,-1,-1,-1,-1,-1,-1,-1,-1,-1,-1],"split_conditions":[-5.3946845E-2,9.05199E-4,1.2208618E-2,-6.830825E-2,1.0677971E-1,6.9446795E-2,1.1295243E-1,-2.8878571E-2,-6.618776E-2,9.1128334E-2,-3.9385878E-2,1.049252E-2,-2.069851E-2,-2.2681056E-2,-2.6807246E-1,-3.0700514E-1,2.7564594E-1,-3.9589796E-2,-2.9640016E-1,3.0912021E-2,1.3542395E-2,3.5238308E-3,-7.591272E-2,-5.8541887E-2,8.503403E-2,-2.8008294E-1,1.9696753E-1,-5.340811E-3,-7.1967198E-3,-3.0052862E-1,3.945362E-2,-6.255545E-2,1.2031032E-2,2.1438725E-2,8.195031E-2,3.058054E-2,-4.1385725E-2,-5.2536793E-2,4.3462507E-2,-4.9339786E-1,3.7751675E-2,-2.9738002E-2,-2.1124032E-1,-3.7589848E-1,-1.3051521E-3,-3.054162E-1,1.008427E-2,5.450293E-3,-2.5177148E-1,6.1634324E-2,6.0606286E-2,-3.4847364E-2,1.3961402E-1,-2.6579726E-1,6.0002767E-3,-2.8482842E-1,-1.572138E-2,-2.944475E-1,3.328523E-2,-2.6214235E-2,2.0652199E-1,-2.8856233E-1,3.7145585E-2,-3.071018E-1,1.4224453E-2,-3.5742643E-1,1.5258487E-2,-4.3718303E-3,-3.9356902E-2,-2.7188185E-1,5.5714764E-2,-2.3119941E-1,2.359449E-1,2.2841989E-1,2.819148E-1,-2.7939725E-1,7.637178E-2,-1.2213751E-1,9.0843715E-2,-2.9467508E-1,1.3969098E-1,-3.308123E-1,1.3252269E-1,2.5499168E-1,-1.6280992E-1,-3.6352554E-1,-2.6301852E-1,2.4827316E-1,-2.6667917E-1,-2.9815966E-1,-4.0763527E-1,2.057189E-1,-2.9996118E-1,-2.0912944E-1,2.5936025E-1,2.3667625E-1,1.1030926E-1,2.3175323E-1,-3.7091526E-1,1.8326785E-1,2.6010993E-1,-1.1003836E-1,1.5479694E-1],"split_indices":[2438,825,587,1817,2527,1145,1021,1351,1705,1381,613,1288,14,767,0,0,0,2333,0,76,247,2004,82,730,698,0,0,1281,1282,0,2299,2124,1280,1796,1243,212,1,1444,1280,0,975,963,0,0,1253,0,0,0,0,1127,866,854,2162,0,23,0,11,0,211,622,0,0,790,0,0,0,1280,1296,1169,0,748,0,0,0,0,0,0,0,0,0,0,0,0,0,0,0,0,0,0,0,0,0,0,0,0,0,0,0,0,0,0,0,0],"split_type":[0,0,0,0,0,0,0,0,0,0,0,0,0,0,0,0,0,0,0,0,0,0,0,0,0,0,0,0,0,0,0,0,0,0,0,0,0,0,0,0,0,0,0,0,0,0,0,0,0,0,0,0,0,0,0,0,0,0,0,0,0,0,0,0,0,0,0,0,0,0,0,0,0,0,0,0,0,0,0,0,0,0,0,0,0,0,0,0,0,0,0,0,0,0,0,0,0,0,0,0,0,0,0],"sum_hessian":[4.131921E3,3.0886394E3,1.0432811E3,3.0986395E2,2.7787756E3,6.419953E2,4.0128586E2,5.3768986E1,2.5609497E2,1.9190602E3,8.597154E2,6.1718726E2,2.480802E1,3.758566E2,2.542927E1,4.563861E1,8.130372E0,2.4299458E2,1.31003895E1,1.4946165E3,4.2444373E2,2.9904538E2,5.6067004E2,1.1518438E2,5.0200287E2,1.721178E1,7.596238E0,3.4574948E2,3.0107105E1,6.8224764E0,2.361721E2,1.0736593E3,4.2095703E2,3.906346E1,3.8538028E2,1.37056E2,1.619894E2,5.0537332E2,5.5296703E1,9.086872E0,1.060975E2,4.998315E2,2.1713567E0,5.405256E0,3.4034424E2,1.8626587E1,1.1480517E1,2.3226677E2,3.9053445E0,3.2173022E2,7.5192914E2,2.7373495E2,1.4722208E2,1.5075602E1,2.398786E1,3.2650262E2,5.8877663E1,4.413583E1,9.2920166E1,1.546911E2,7.2983003E0,2.105159E1,4.8432175E2,4.722263E1,8.074075E0,3.1033785E0,1.02994125E2,1.6901447E1,4.8293008E2,6.403472E0,3.3394077E2,3.2050207E0,8.275497E0,9.2327324E1,1.3993944E2,2.979311E2,2.3799139E1,6.0684076E2,1.4508841E2,2.1401459E1,2.523335E2,8.719425E1,6.0027832E1,2.2726313E1,1.2615478E0,4.2908756E1,1.5968907E1,8.701869E1,5.901472E0,1.3080467E2,2.388643E1,4.6838083E2,1.5940919E1,1.1888896E0,6.8851852E0,8.522194E1,1.7772192E1,1.422831E1,2.6731374E0,3.7235123E1,4.4569495E2,1.7233831E1,3.1670694E2],"tree_param":{"num_deleted":"0","num_feature":"2560","num_nodes":"103","size_leaf_vector":"0"}},{"base_weights":[-9.301908E-3,5.487528E-1,-3.2112247E-1,-1.4342022E0,6.1268175E-1,-7.3889E-1,-4.743688E-2,6.709357E-1,-1.4306E0,-1.4122608E-1,-1.0697722E0,-1.4904773E0,2.4822824E-2,7.433869E-1,-2.3763086E-1,-1.4729315E0,2.6914877E-1,-1.2389508E0,2.8923067E-1,-8.3795726E-1,1.3728328E-1,8.112941E-1,-1.82891E-1,-1.720101E0,7.0011675E-1,-1.7718152E0,-1.3557307E0,-1.6299489E0,5.0306606E-1,6.461097E-1,-1.2810607E0,1.0262865E0,-1.648746E0,-1.3869945E0,4.576352E-1,1.938802E-1,-1.3189895E0,6.112437E-1,1.0599699E0,-1.6197183E0,6.312626E-1,-1.2787521E0,9.0070164E-1,6.780344E-1,-1.5475448E0,-1.1234105E0,1.6087649E0,3.740231E-1,-1.3177131E0,1.2546675E0,-1.1009071E0,-1.2900938E0,1.0735275E0,6.18434E-1,8.174801E-3,-5.8844554E-1,7.2215074E-1,-1.2539079E0,1.0852742E0,-1.2927319E0,-1.8783046E0,-1.3977765E0,1.0389891E0,1.1344166E0,4.4577134E-1,-1.263675E0,8.038515E-1,1.3818412E0,-1.2418963E0,3.726879E-1,-1.3515372E0,1.3699298E0,-1.0746363E0,-1.5920211E0,7.631196E-1,3.873049E-1,-9.7536826E-1],"categories":[],"categories_nodes":[],"categories_segments":[],"categories_sizes":[],"default_left":[true,true,true,false,true,true,true,true,false,true,true,false,true,true,true,true,true,true,true,true,true,true,true,false,true,false,false,false,true,true,true,true,false,false,true,true,false,true,true,true,true,false,true,true,false,false,false,true,true,false,false,false,true,true,true,false,false,false,false,false,false,false,false,false,false,false,false,false,false,false,false,false,false,false,false,false,false],"id":4,"left_children":[1,3,5,-1,7,9,11,13,-1,15,17,-1,19,21,23,25,27,29,31,33,35,37,39,-1,41,-1,-1,-1,43,45,47,49,-1,-1,51,53,-1,55,57,59,61,-1,63,65,-1,-1,-1,67,69,-1,-1,-1,71,73,75,-1,-1,-1,-1,-1,-1,-1,-1,-1,-1,-1,-1,-1,-1,-1,-1,-1,-1,-1,-1,-1,-1],"loss_changes":[6.6865967E2,1.7549469E2,2.818206E2,0E0,1.5987827E2,1.9279199E2,1.5545387E2,8.567206E1,0E0,1.9102779E2,1.4470703E2,0E0,1.3793246E2,7.582538E1,1.3560402E2,4.8171997E-1,1.19651024E2,4.5162964E1,1.02131195E2,1.1724469E2,1.0389512E2,5.5125305E1,9.8108765E1,0E0,2.4939583E1,0E0,0E0,0E0,8.677434E1,2.372845E1,3.365442E1,2.642871E1,0E0,0E0,5.4715782E1,9.549434E1,0E0,8.340634E1,3.054602E1,1.3371277E-1,4.587429E1,0E0,5.342182E0,5.4966682E1,0E0,0E0,0E0,2.2272467E1,3.1094727E1,0E0,0E0,0E0,2.5145943E1,1.1909613E2,3.1498257E2,0E0,0E0,0E0,0E0,0E0,0E0,0E0,0E0,0E0,0E0,0E0,0E0,0E0,0E0,0E0,0E0,0E0,0E0,0E0,0E0,0E0,0E0],"parents":[2147483647,0,0,1,1,2,2,4,4,5,5,6,6,7,7,9,9,10,10,12,12,13,13,14,14,15,15,16,16,17,17,18,18,19,19,20,20,21,21,22,22,24,24,28,28,29,29,30,30,31,31,34,34,35,35,37,37,38,38,39,39,40,40,42,42,43,43,47,47,48,48,52,52,53,53,54,54],"right_children":[2,4,6,-1,8,10,12,14,-1,16,18,-1,20,22,24,26,28,30,32,34,36,38,40,-1,42,-1,-1,-1,44,46,48,50,-1,-1,52,54,-1,56,58,60,62,-1,64,66,-1,-1,-1,68,70,-1,-1,-1,72,74,76,-1,-1,-1,-1,-1,-1,-1,-1,-1,-1,-1,-1,-1,-1,-1,-1,-1,-1,-1,-1,-1,-1],"split_conditions":[4.9927793E-2,-3.4553386E-2,-2.8275622E-2,-2.8684044E-1,1.0540947E-1,-2.9759534E-2,-2.0355675E-2,7.7562824E-2,-2.8612003E-1,6.314218E-2,5.0774503E-2,-2.9809546E-1,2.6105061E-2,7.2143395E-3,2.6586719E-2,-4.076015E-3,4.1299947E-2,1.2789256E-4,-8.462139E-2,-5.154673E-3,1.1567509E-1,2.8968932E-2,-1.5289577E-2,-3.4402022E-1,8.011448E-2,-3.5436305E-1,-2.7114615E-1,-3.2598978E-1,-8.7523535E-3,-4.540743E-2,-3.7958123E-2,-1.7098486E-2,-3.297492E-1,-2.773989E-1,6.443295E-2,-1.503236E-2,-2.637979E-1,-7.698586E-2,3.7006304E-2,2.6244711E-2,6.644282E-2,-2.5575042E-1,-1.348987E-2,-2.1826673E-2,-3.0950898E-1,-2.246821E-1,3.21753E-1,-2.5665063E-2,1.3599594E-2,2.509335E-1,-2.2018142E-1,-2.5801876E-1,-4.8150536E-2,-5.7919316E-2,1.6296739E-2,-1.1768911E-1,1.4443015E-1,-2.507816E-1,2.1705484E-1,-2.5854638E-1,-3.7566093E-1,-2.795553E-1,2.0779781E-1,2.2688332E-1,8.9154266E-2,-2.52735E-1,1.607703E-1,2.7636823E-1,-2.4837926E-1,7.453758E-2,-2.7030745E-1,2.7398595E-1,-2.1492727E-1,-3.1840423E-1,1.5262392E-1,7.746098E-2,-1.9507365E-1],"split_indices":[1685,707,1163,0,88,863,1956,593,0,2167,1451,0,656,1678,1952,1528,1305,1334,831,2263,2483,826,606,0,684,0,0,0,1323,1,1333,27,0,0,1292,715,0,1325,1437,1280,592,0,5,357,0,0,0,30,1357,0,0,0,160,1619,1926,0,0,0,0,0,0,0,0,0,0,0,0,0,0,0,0,0,0,0,0,0,0],"split_type":[0,0,0,0,0,0,0,0,0,0,0,0,0,0,0,0,0,0,0,0,0,0,0,0,0,0,0,0,0,0,0,0,0,0,0,0,0,0,0,0,0,0,0,0,0,0,0,0,0,0,0,0,0,0,0,0,0,0,0,0,0,0,0,0,0,0,0,0,0,0,0,0,0,0,0,0,0],"sum_hessian":[3.8405732E3,1.3764419E3,2.4641313E3,4.232006E1,1.3341218E3,9.7466046E2,1.4894708E3,1.2977935E3,3.6328423E1,3.4782327E2,6.268372E2,7.009206E1,1.4193788E3,1.2021157E3,9.567775E1,8.132539E1,2.6649786E2,5.5752124E2,6.9315956E1,1.6293262E2,1.2564462E3,1.1201217E3,8.199405E1,3.674844E1,5.892931E1,1.893075E1,6.239464E1,2.8571028E1,2.3792685E2,1.1868768E1,5.4565247E2,5.055804E1,1.875792E1,1.1438766E2,4.854496E1,1.2102766E3,4.6169594E1,6.226672E2,4.9745447E2,2.9298422E1,5.269563E1,4.9288306E0,5.4000477E1,2.1983849E2,1.8088367E1,4.123006E0,7.745762E0,1.1622472E1,5.3403E2,4.6026676E1,4.5313644E0,1.2364192E1,3.618077E1,3.6758502E2,8.426915E2,5.232781E1,5.703394E2,4.8560486E0,4.9259842E2,1.5587281E1,1.371114E1,8.410885E0,4.4284744E1,3.4686893E1,1.9313583E1,1.28276825E1,2.070108E2,7.2473164E0,4.3751554E0,1.0279513E1,5.237505E2,3.2112225E1,4.0685463E0,2.1967653E1,3.4561737E2,6.08671E2,2.3402052E2],"tree_param":{"num_deleted":"0","num_feature":"2560","num_nodes":"77","size_leaf_vector":"0"}},{"base_weights":[-1.2036659E-2,-2.2313118E-1,6.3539064E-1,-3.248719E-1,4.4903243E-1,8.839096E-1,2.61042E-1,-1.3999113E-1,-8.503203E-1,6.807907E-1,-1.3964213E0,9.4685686E-1,-6.0286134E-1,3.5345304E-1,-1.2039587E0,3.9186027E-2,-7.7011836E-1,-2.3974298E-1,-1.1922868E0,8.249694E-1,-1.3315333E0,1.0720301E0,5.7756764E-1,-1.2571158E0,8.020845E-1,4.397854E-1,-6.547532E-1,1.4321701E-1,-9.017327E-1,-2.4185106E-2,-1.1730438E0,4.1480893E-1,-1.2944432E0,3.466367E-1,-1.2646275E0,-1.1215805E0,9.1058785E-1,-1.4850806E0,1.0927494E0,7.751665E-1,-2.068795E0,-1.5054518E0,4.7758597E-1,-1.3416846E0,3.8974905E-1,-4.166683E-1,2.6622507E-1,6.716504E-1,-1.3395014E0,9.7532004E-1,-8.6445445E-1,2.012165E-1,-1.2939786E0,7.1401614E-1,-1.3396244E0,-1.0473719E0,1.0620675E0,-1.3085557E0,1.3149774E-1,-1.37566E0,9.8583376E-1,1.1006879E0,-8.594571E-1,-2.0153089E0,8.9242077E-1,5.118669E-1,-1.5142525E0,-1.0559932E0,9.718343E-1,3.2418826E-1,-1.2664745E0,-1.5617791E0,3.1869495E-1,9.860874E-1,-1.0118049E0,-1.3666203E0,1.198212E0,4.4460595E-1,-1.3626409E0,-1.2433034E0,1.2311978E0,8.156041E-1,-1.1059576E0,1.1584551E0,-1.0388433E0,1.0406735E0,-1.2073202E0,1.1518878E0,8.141956E-1,3.7109503E-1,1.0043622E0,-1.1767266E0,5.4552907E-1],"categories":[],"categories_nodes":[],"categories_segments":[],"categories_sizes":[],"default_left":[true,true,true,true,true,true,true,true,true,true,false,true,true,true,false,true,true,true,true,true,false,true,true,false,false,true,true,true,true,true,true,true,false,true,true,false,true,false,true,true,false,false,true,false,true,true,true,true,false,true,true,true,false,true,false,false,false,false,true,false,true,true,false,false,true,true,false,false,false,false,false,false,false,false,false,false,false,false,false,false,false,false,false,false,false,false,false,false,false,false,false,false,false],"id":5,"left_children":[1,3,5,7,9,11,13,15,17,19,-1,21,23,25,-1,27,29,31,33,35,-1,37,39,-1,-1,41,43,45,47,49,51,53,-1,55,57,-1,59,-1,61,63,-1,-1,65,-1,67,69,71,73,-1,75,77,79,-1,81,-1,-1,-1,-1,83,-1,85,87,-1,-1,89,91,-1,-1,-1,-1,-1,-1,-1,-1,-1,-1,-1,-1,-1,-1,-1,-1,-1,-1,-1,-1,-1,-1,-1,-1,-1,-1,-1],"loss_changes":[4.88675E2,1.8454327E2,8.1562195E1,2.274442E2,1.5274133E2,4.9983368E1,4.810804E1,1.958071E2,1.2697543E2,9.277385E1,0E0,2.2813354E1,2.1282654E1,2.919254E1,0E0,1.3237675E2,1.1537036E2,1.524591E2,4.3904114E1,5.0264145E1,0E0,2.1619415E1,6.984207E1,0E0,0E0,2.3255245E1,1.9604774E1,8.3954605E1,9.363856E1,1.1479422E2,4.1688263E1,7.263604E1,0E0,1.937735E1,2.3055237E1,0E0,5.013916E1,0E0,6.75708E0,4.1767334E1,0E0,0E0,2.1355537E1,0E0,1.0557747E1,1.3871745E2,9.6291336E1,1.686407E1,0E0,3.423015E1,4.9022987E1,3.2815434E1,0E0,2.2590443E1,0E0,0E0,0E0,0E0,1.5975359E1,0E0,3.434543E1,4.5464783E0,0E0,0E0,6.509041E0,1.7526794E1,0E0,0E0,0E0,0E0,0E0,0E0,0E0,0E0,0E0,0E0,0E0,0E0,0E0,0E0,0E0,0E0,0E0,0E0,0E0,0E0,0E0,0E0,0E0,0E0,0E0,0E0,0E0],"parents":[2147483647,0,0,1,1,2,2,3,3,4,4,5,5,6,6,7,7,8,8,9,9,11,11,12,12,13,13,15,15,16,16,17,17,18,18,19,19,21,21,22,22,25,25,26,26,27,27,28,28,29,29,30,30,31,31,33,33,34,34,36,36,38,38,39,39,42,42,44,44,45,45,46,46,47,47,49,49,50,50,51,51,53,53,58,58,60,60,61,61,64,64,65,65],"right_children":[2,4,6,8,10,12,14,16,18,20,-1,22,24,26,-1,28,30,32,34,36,-1,38,40,-1,-1,42,44,46,48,50,52,54,-1,56,58,-1,60,-1,62,64,-1,-1,66,-1,68,70,72,74,-1,76,78,80,-1,82,-1,-1,-1,-1,84,-1,86,88,-1,-1,90,92,-1,-1,-1,-1,-1,-1,-1,-1,-1,-1,-1,-1,-1,-1,-1,-1,-1,-1,-1,-1,-1,-1,-1,-1,-1,-1,-1],"split_conditions":[-5.3946845E-2,1.5992833E-2,1.2208618E-2,-3.036146E-2,3.190666E-2,6.9446795E-2,1.1295243E-1,3.5478227E-2,-1.6351696E-2,-1.5052502E-2,-2.7928427E-1,6.598679E-2,-2.069851E-2,-2.2681056E-2,-2.4079175E-1,4.8426233E-2,-2.180062E-4,-2.3394438E-2,4.3079987E-2,-6.729504E-2,-2.6630667E-1,-1.760097E-3,1.0642062E-1,-2.5142318E-1,1.604169E-1,-5.340811E-3,-7.1967198E-3,1.2869114E-1,-1.9542124E-2,-2.5406495E-2,-8.749372E-2,4.66151E-2,-2.5888866E-1,7.388797E-2,5.3306885E-2,-2.243161E-1,1.5716683E-2,-2.970161E-1,9.0386E-2,-2.6868299E-2,-4.13759E-1,-3.0109036E-1,2.2369215E-2,-2.6833692E-1,1.008427E-2,-5.1348407E-2,-1.1199275E-1,-9.466758E-3,-2.679003E-1,1.4239959E-2,1.4739741E-2,3.8062192E-2,-2.587957E-1,1.9250004E-2,-2.6792488E-1,-2.0947437E-1,2.124135E-1,-2.6171115E-1,1.4616495E-2,-2.75132E-1,6.519739E-2,-1.6496735E-2,-1.7189142E-1,-4.0306178E-1,8.361504E-3,-1.3051521E-3,-3.028505E-1,-2.1119864E-1,1.9436686E-1,6.483766E-2,-2.5329491E-1,-3.1235585E-1,6.3738994E-2,1.9721748E-1,-2.0236099E-1,-2.7332407E-1,2.3964241E-1,8.892119E-2,-2.7252817E-1,-2.4866068E-1,2.4623957E-1,1.6312082E-1,-2.2119153E-1,2.3169103E-1,-2.0776866E-1,2.081347E-1,-2.4146405E-1,2.3037755E-1,1.6283911E-1,7.421901E-2,2.0087245E-1,-2.3534532E-1,1.0910582E-1],"split_indices":[2438,776,587,1486,1415,1145,1021,723,2339,1633,0,1334,14,767,0,2222,1856,579,694,1,0,34,135,0,0,1281,1282,700,886,30,4,1223,0,1418,33,0,1639,0,172,319,0,0,383,0,0,1887,1539,1326,0,1280,1926,2223,0,180,0,0,0,0,1297,0,2211,977,0,0,136,1253,0,0,0,0,0,0,0,0,0,0,0,0,0,0,0,0,0,0,0,0,0,0,0,0,0,0,0],"split_type":[0,0,0,0,0,0,0,0,0,0,0,0,0,0,0,0,0,0,0,0,0,0,0,0,0,0,0,0,0,0,0,0,0,0,0,0,0,0,0,0,0,0,0,0,0,0,0,0,0,0,0,0,0,0,0,0,0,0,0,0,0,0,0,0,0,0,0,0,0,0,0,0,0,0,0,0,0,0,0,0,0,0,0,0,0,0,0,0,0,0,0,0,0],"sum_hessian":[3.573589E3,2.6954043E3,8.7818475E2,2.341504E3,3.5390045E2,5.2697833E2,3.5120645E2,1.7330062E3,6.084976E2,3.1497583E2,3.8924633E1,5.0592163E2,2.1056698E1,3.3108087E2,2.012557E1,1.3500549E3,3.8295132E2,2.1906346E2,3.8943417E2,2.9446786E2,2.0507944E1,3.7642627E2,1.2949535E2,1.4438298E1,6.6183987E0,3.05486E2,2.5594872E1,1.2164122E3,1.3364264E2,1.3467973E2,2.482716E2,1.3554828E2,8.351518E1,1.7314112E1,3.7212006E2,1.189661E1,2.8257126E2,2.4574635E0,3.739688E2,1.2115595E2,8.339402E0,5.083061E0,3.0040295E2,1.5268686E1,1.0326184E1,2.1867961E2,9.9773267E2,2.8973787E1,1.04668846E2,6.1438072E1,7.324165E1,2.0027073E1,2.2824454E2,1.1630605E2,1.9242218E1,5.71484E0,1.1599272E1,3.608295E2,1.129056E1,8.45309E0,2.7411816E2,3.7288867E2,1.0801293E0,4.232855E0,1.16923096E2,2.9605072E2,4.352226E0,2.7304156E0,7.5957685E0,1.1715929E2,1.01520325E2,2.703659E1,9.7069604E2,2.476282E1,4.210969E0,4.8932333E0,5.6544838E1,2.0219471E1,5.3022182E1,8.249819E0,1.1777253E1,1.1067994E2,5.6261144E0,6.019069E0,5.2714906E0,2.6794373E2,6.174437E0,3.137897E2,5.9098984E1,2.1431044E1,9.549205E1,5.122721E0,2.90928E2],"tree_param":{"num_deleted":"0","num_feature":"2560","num_nodes":"93","size_leaf_vector":"0"}},{"base_weights":[-1.4651929E-2,4.8100525E-1,-2.3136307E-1,-1.5522766E-1,6.312189E-1,-1.1351386E-1,-9.0188915E-1,2.1954046E-1,-1.5393318E0,-1.5543628E-1,7.4009705E-1,-2.72064E-1,3.1798458E-1,4.5805347E-1,-1.0858985E0,-7.903745E-1,6.108206E-1,-1.7167417E0,4.2220867E-1,-1.2710888E0,7.7103555E-1,-6.41169E-1,1.1655273E-1,4.6464503E-1,-1.5091612E0,-1.1267536E0,1.1061474E0,-1.2294604E0,-1.6648076E-1,-1.5456821E0,6.8900967E-1,7.173619E-1,-1.7176737E0,-1.9375801E0,-1.244576E0,5.7674575E-1,-1.0981787E0,-1.2331277E0,7.9982483E-1,-1.0999218E0,-1.5620889E-1,-5.8909273E-1,5.458014E-1,7.484412E-1,-1.3875522E-1,-1.1237729E0,-1.7021298E0,1.2901902E0,6.358779E-1,7.164164E-1,-1.2468807E0,-2.160592E0,-1.2163192E0,-9.1733277E-1,1.0621349E0,-9.830595E-1,7.678995E-1,7.713789E-1,-3.8410902E-1,8.3418554E-1,-2.8680494E-1,-1.3168012E0,1.2461315E-1,-1.1082635E0,2.4430057E-1,3.9013377E-1,-1.3120049E0,7.263824E-1,-1.5691125E0,-1.2260029E0,8.2623386E-1,-1.3500494E0,2.2229184E-1,1.2558837E0,-1.0665529E0,-8.946967E-1,9.744765E-1,8.6700344E-1,2.4079873E-1,-1.2122822E0,8.4537274E-1,8.591308E-1,-2.3186352E0,7.185759E-1,1.0809546E0,-1.6955321E0,1.0195225E0,3.4077972E-1,-1.3689501E0,8.169143E-1,-1.4110535E0,-1.436868E0,1.4169249E-1,-1.4294508E0,5.1333386E-1,-9.631639E-1,9.6228725E-1,3.4407654E-1,-1.4486314E0,-1.1334554E0,7.98486E-1,-1.0517739E0,-1.6731331E0,-2.7673823E-1,9.172502E-1,-1.6313779E0,5.152164E-1],"categories":[],"categories_nodes":[],"categories_segments":[],"categories_sizes":[],"default_left":[true,true,true,true,true,true,true,true,false,true,true,true,true,true,true,true,true,true,true,false,true,true,true,true,true,false,true,false,true,true,true,true,false,false,false,true,false,false,true,true,true,true,true,true,true,false,false,false,true,true,false,false,false,false,false,false,true,true,true,true,true,true,true,true,true,true,true,true,true,false,true,false,true,false,false,false,false,false,false,false,false,false,false,false,false,false,false,false,false,false,false,false,false,false,false,false,false,false,false,false,false,false,false,false,false,false,false],"id":6,"left_children":[1,3,5,7,9,11,13,15,-1,17,19,21,23,25,27,29,31,33,35,-1,37,39,41,43,45,-1,47,-1,49,51,53,55,-1,-1,-1,57,-1,-1,59,61,63,65,67,69,71,-1,-1,-1,73,75,-1,-1,-1,-1,-1,-1,77,79,81,83,85,87,89,91,93,95,97,99,101,-1,103,-1,105,-1,-1,-1,-1,-1,-1,-1,-1,-1,-1,-1,-1,-1,-1,-1,-1,-1,-1,-1,-1,-1,-1,-1,-1,-1,-1,-1,-1,-1,-1,-1,-1,-1,-1],"loss_changes":[3.54712E2,9.610867E1,1.8145915E2,1.0028696E2,6.974106E1,1.3385815E2,8.64093E1,6.0746185E1,0E0,9.060637E1,4.542331E1,2.0525934E2,1.4161852E2,4.39943E1,3.9749084E1,4.9137634E1,2.864059E1,4.1552734E-1,1.7914066E1,0E0,4.1609436E1,1.6308109E2,2.1163933E2,8.3594986E1,1.0105362E0,0E0,1.7799301E0,0E0,4.0992058E1,3.202713E0,1.0104395E1,9.894367E0,0E0,0E0,0E0,1.2904459E1,0E0,0E0,2.6177246E1,1.00265686E2,1.3673105E2,1.876463E2,1.6700523E2,5.1969788E1,6.8875984E1,0E0,0E0,0E0,1.2340721E1,1.0753846E1,0E0,0E0,0E0,0E0,0E0,0E0,5.215847E0,9.302357E0,3.0909899E1,1.8441925E1,4.2284195E1,2.815326E1,6.2417797E1,4.3804382E1,1.14533966E2,8.845603E1,3.4960724E1,5.465535E1,9.584808E-2,0E0,3.235585E1,0E0,6.689844E1,0E0,0E0,0E0,0E0,0E0,0E0,0E0,0E0,0E0,0E0,0E0,0E0,0E0,0E0,0E0,0E0,0E0,0E0,0E0,0E0,0E0,0E0,0E0,0E0,0E0,0E0,0E0,0E0,0E0,0E0,0E0,0E0,0E0,0E0],"parents":[2147483647,0,0,1,1,2,2,3,3,4,4,5,5,6,6,7,7,9,9,10,10,11,11,12,12,13,13,14,14,15,15,16,16,17,17,18,18,20,20,21,21,22,22,23,23,24,24,26,26,28,28,29,29,30,30,31,31,35,35,38,38,39,39,40,40,41,41,42,42,43,43,44,44,48,48,49,49,56,56,57,57,58,58,59,59,60,60,61,61,62,62,63,63,64,64,65,65,66,66,67,67,68,68,70,70,72,72],"right_children":[2,4,6,8,10,12,14,16,-1,18,20,22,24,26,28,30,32,34,36,-1,38,40,42,44,46,-1,48,-1,50,52,54,56,-1,-1,-1,58,-1,-1,60,62,64,66,68,70,72,-1,-1,-1,74,76,-1,-1,-1,-1,-1,-1,78,80,82,84,86,88,90,92,94,96,98,100,102,-1,104,-1,106,-1,-1,-1,-1,-1,-1,-1,-1,-1,-1,-1,-1,-1,-1,-1,-1,-1,-1,-1,-1,-1,-1,-1,-1,-1,-1,-1,-1,-1,-1,-1,-1,-1,-1],"split_conditions":[4.290779E-2,1.0809111E-2,-3.4502894E-2,-7.230768E-2,-3.208498E-2,-4.261189E-3,-1.1834322E-2,-2.12421E-2,-3.0786636E-1,6.374725E-2,1.1549838E-2,6.31471E-2,1.16543256E-1,7.174508E-2,4.2401165E-2,8.870389E-2,1.17599934E-1,3.9267287E-2,3.9267287E-2,-2.5421777E-1,-8.432442E-2,2.4603741E-2,4.706265E-2,-2.186194E-2,-6.294043E-2,-2.2535072E-1,2.9223023E-3,-2.4589208E-1,-6.390683E-2,-2.601972E-2,7.0228055E-3,1.5438604E-2,-3.4353474E-1,-3.8751602E-1,-2.489152E-1,-1.6758855E-2,-2.1963575E-1,-2.4662554E-1,-1.5425472E-2,-2.1546338E-2,8.042956E-3,4.83165E-2,2.153106E-2,-7.1880715E-3,-5.5375334E-2,-2.2475457E-1,-3.4042597E-1,2.5803804E-1,-5.202568E-3,1.100851E-1,-2.4937613E-1,-4.3211842E-1,-2.4326384E-1,-1.8346655E-1,2.1242698E-1,-1.9661191E-1,9.199966E-3,4.987559E-2,-6.727098E-2,1.5407566E-2,-3.794608E-2,1.4139909E-2,3.8938142E-2,8.680926E-2,-6.154611E-2,-6.4791486E-2,-6.939016E-3,-8.915924E-2,7.4910335E-2,-2.4520059E-1,1.2575701E-1,-2.7000988E-1,-2.4883177E-2,2.5117674E-1,-2.1331058E-1,-1.7893934E-1,1.9489531E-1,1.7340069E-1,4.8159745E-2,-2.4245644E-1,1.6907455E-1,1.7182617E-1,-4.6372706E-1,1.4371519E-1,2.1619092E-1,-3.391064E-1,2.0390451E-1,6.8155944E-2,-2.7379003E-1,1.6338287E-1,-2.822107E-1,-2.873736E-1,2.8338498E-2,-2.8589016E-1,1.0266677E-1,-1.9263278E-1,1.9245745E-1,6.881531E-2,-2.897263E-1,-2.2669108E-1,1.596972E-1,-2.1035479E-1,-3.3462664E-1,-5.5347648E-2,1.8345004E-1,-3.262756E-1,1.0304328E-1],"split_indices":[1823,383,782,2454,557,436,1550,199,0,1496,1359,1493,1378,923,2405,1311,1379,505,505,0,4,649,427,1633,2204,0,0,0,1272,665,34,352,0,0,0,2044,0,0,508,1804,1534,2239,1621,1100,1166,0,0,0,1283,1293,0,0,0,0,0,0,0,52,1,1337,2406,1357,781,91,1797,513,1280,302,761,0,1510,0,2271,0,0,0,0,0,0,0,0,0,0,0,0,0,0,0,0,0,0,0,0,0,0,0,0,0,0,0,0,0,0,0,0,0,0],"split_type":[0,0,0,0,0,0,0,0,0,0,0,0,0,0,0,0,0,0,0,0,0,0,0,0,0,0,0,0,0,0,0,0,0,0,0,0,0,0,0,0,0,0,0,0,0,0,0,0,0,0,0,0,0,0,0,0,0,0,0,0,0,0,0,0,0,0,0,0,0,0,0,0,0,0,0,0,0,0,0,0,0,0,0,0,0,0,0,0,0,0,0,0,0,0,0,0,0,0,0,0,0,0,0,0,0,0,0],"sum_hessian":[3.300239E3,1.003602E3,2.296637E3,1.9168465E2,8.1191736E2,1.9543218E3,3.423152E2,1.5150394E2,4.0180706E1,9.866019E1,7.1325714E2,1.4294521E3,5.2486957E2,4.061988E1,3.0169528E2,4.2022263E1,1.0948168E2,2.6111622E1,7.254857E1,1.0198663E1,7.030585E2,7.3279736E2,6.9665485E2,4.865603E2,3.8309284E1,1.1575453E1,2.9044428E1,2.6065784E2,4.1037457E1,2.7789412E1,1.4232848E1,1.0535312E2,4.128561E0,1.5676092E1,1.0435531E1,6.641826E1,6.1303086E0,9.36384E0,6.9369464E2,3.759221E2,3.5687524E2,2.633535E2,4.3330136E2,3.3075604E2,1.5580428E2,1.5058578E1,2.3250708E1,1.9621805E1,9.422622E0,2.2768253E1,1.8269201E1,7.753661E0,2.0035751E1,2.407934E0,1.1824915E1,2.5082078E0,1.0284491E2,5.539459E1,1.1023669E1,6.726567E2,2.1037964E1,3.1929575E2,5.6626335E1,1.05151505E2,2.5172372E2,1.1204388E2,1.513096E2,3.998195E2,3.3481865E1,1.1978238E1,3.187778E2,3.514738E1,1.206569E2,7.0994005E0,2.3232207E0,2.8028123E0,1.996544E1,8.602575E1,1.681916E1,1.438808E0,5.395578E1,7.0492835E0,3.974386E0,4.6072302E2,2.1193367E2,9.978903E0,1.105906E1,9.570113E0,3.0972565E2,3.935332E1,1.7273018E1,8.314401E1,2.2007496E1,3.426095E1,2.1746278E2,3.309109E1,7.895279E1,1.1415942E1,1.3989366E2,1.4372629E1,3.8544684E2,7.4652414E0,2.6016624E1,2.4144512E1,2.9463327E2,1.5841333E1,1.0481557E2],"tree_param":{"num_deleted":"0","num_feature":"2560","num_nodes":"107","size_leaf_vector":"0"}},{"base_weights":[-1.8067302E-2,4.2272168E-1,-2.1093038E-1,-1.4495374E-1,5.573173E-1,-1.0509188E-1,-8.5803115E-1,1.8465202E-1,-1.4076351E0,-1.4714444E-1,6.560468E-1,1.9078389E-1,-2.8616E-1,4.170541E-1,-1.0373238E0,-7.2788614E-1,5.2280766E-1,-1.5296438E0,3.6129278E-1,6.8610317E-1,-1.2209759E0,-1.4760162E0,3.3800223E-1,-9.0901464E-1,-1.034946E-1,-1.0728595E0,1.0030725E0,-1.1813986E0,-1.5971918E-1,-1.4134737E0,6.249087E-1,6.1764514E-1,-1.5298315E0,4.9674892E-1,-1.0328208E0,-1.1487483E0,7.1180516E-1,-1.2532938E0,-1.7091758E0,-9.209217E-1,4.9334732E-1,2.460156E-1,-1.2267387E0,-1.389508E0,-1.3207088E-2,1.1782669E0,5.613797E-1,6.2976426E-1,-1.1768773E0,-1.7889351E0,-1.156529E0,-8.5941076E-1,9.7682405E-1,-9.215635E-1,6.624277E-1,1.0411774E-2,8.177737E-1,5.9258085E-1,9.800821E-1,-1.302179E0,-2.0062947E0,1.8773153E-2,-1.3454106E0,7.7660054E-1,9.793027E-2,-1.1653645E0,1.0432228E0,2.1368466E-2,-1.2813914E0,-1.1720048E0,-1.6848793E0,-1.1499343E0,7.798321E-2,1.1324937E0,-9.775097E-1,-8.41304E-1,8.616944E-1,3.0259356E-1,8.136453E-1,2.0613933E-1,-1.4754469E0,1.0005174E0,5.836853E-1,6.332527E-1,-1.5892193E0,1.0288267E0,-2.0651839E0,-1.2777128E0,8.764629E-1,-9.744962E-2,9.024835E-1,6.984584E-1,-1.2886657E0,1.1245241E0,-7.3387057E-1,8.0708015E-1,-8.9244604E-1,-1.2124763E0,-1.6850203E0,8.879727E-1,-1.3540704E0,1.7660469E-1,-7.4874914E-1,9.878581E-1,-6.8965703E-1],"categories":[],"categories_nodes":[],"categories_segments":[],"categories_sizes":[],"default_left":[true,true,true,true,true,true,true,true,false,true,true,true,true,true,true,true,true,false,true,true,false,true,true,true,true,false,true,false,true,true,true,true,false,true,false,false,true,false,true,true,true,true,true,true,true,false,true,true,false,false,false,false,false,false,true,true,true,true,true,false,false,true,false,true,true,false,true,true,true,false,false,true,true,false,false,false,true,false,false,false,false,false,false,false,false,false,false,false,false,false,false,false,false,false,false,false,false,false,false,false,false,false,false,false,false],"id":7,"left_children":[1,3,5,7,9,11,13,15,-1,17,19,21,23,25,27,29,31,-1,33,35,-1,37,39,41,43,-1,45,-1,47,49,51,53,-1,55,-1,-1,57,-1,59,61,63,65,67,69,71,-1,73,75,-1,-1,-1,-1,-1,-1,77,79,81,83,85,-1,-1,87,-1,89,91,-1,93,95,97,-1,-1,99,101,-1,-1,-1,103,-1,-1,-1,-1,-1,-1,-1,-1,-1,-1,-1,-1,-1,-1,-1,-1,-1,-1,-1,-1,-1,-1,-1,-1,-1,-1,-1,-1],"loss_changes":[2.5654694E2,7.02623E1,1.4368027E2,7.385687E1,5.175148E1,9.67691E1,6.785962E1,4.3925774E1,0E0,6.529766E1,3.7597626E1,1.6882071E2,1.2736782E2,3.344495E1,3.2542572E1,3.6657143E1,2.1101315E1,0E0,1.338294E1,3.1091705E1,0E0,7.5847626E-1,1.2387676E2,9.348573E1,1.0069485E2,0E0,1.4374714E0,0E0,3.098408E1,4.3019867E-1,7.9783373E0,7.4815674E0,0E0,9.794919E0,0E0,0E0,1.9688232E1,0E0,3.548813E-1,2.7815716E1,6.2917755E1,6.3788677E1,1.3622681E1,1.6803207E0,8.420803E1,0E0,9.555905E0,8.181539E0,0E0,0E0,0E0,0E0,0E0,0E0,5.0561676E0,7.8598137E0,1.0335178E0,4.016252E1,3.0839676E1,0E0,0E0,2.632304E1,0E0,3.6127243E1,1.9731699E2,0E0,6.0361176E0,7.4298406E0,3.2688293E0,0E0,0E0,2.6299683E1,6.1459053E1,0E0,0E0,0E0,4.472966E0,0E0,0E0,0E0,0E0,0E0,0E0,0E0,0E0,0E0,0E0,0E0,0E0,0E0,0E0,0E0,0E0,0E0,0E0,0E0,0E0,0E0,0E0,0E0,0E0,0E0,0E0,0E0,0E0],"parents":[2147483647,0,0,1,1,2,2,3,3,4,4,5,5,6,6,7,7,9,9,10,10,11,11,12,12,13,13,14,14,15,15,16,16,18,18,19,19,21,21,22,22,23,23,24,24,26,26,28,28,29,29,30,30,31,31,33,33,36,36,38,38,39,39,40,40,41,41,42,42,43,43,44,44,46,46,47,47,54,54,55,55,56,56,57,57,58,58,61,61,63,63,64,64,66,66,67,67,68,68,71,71,72,72,76,76],"right_children":[2,4,6,8,10,12,14,16,-1,18,20,22,24,26,28,30,32,-1,34,36,-1,38,40,42,44,-1,46,-1,48,50,52,54,-1,56,-1,-1,58,-1,60,62,64,66,68,70,72,-1,74,76,-1,-1,-1,-1,-1,-1,78,80,82,84,86,-1,-1,88,-1,90,92,-1,94,96,98,-1,-1,100,102,-1,-1,-1,104,-1,-1,-1,-1,-1,-1,-1,-1,-1,-1,-1,-1,-1,-1,-1,-1,-1,-1,-1,-1,-1,-1,-1,-1,-1,-1,-1,-1],"split_conditions":[4.290779E-2,1.0809111E-2,-3.4502894E-2,-7.230768E-2,-3.208498E-2,4.927423E-2,-1.1834322E-2,-2.12421E-2,-2.81527E-1,6.374725E-2,3.9681006E-2,2.9526085E-2,-4.748601E-2,7.174508E-2,4.2401165E-2,8.870389E-2,1.17599934E-1,-3.0592877E-1,3.9267287E-2,-8.432442E-2,-2.4419518E-1,3.8583085E-2,-4.060685E-2,-3.7764465E-3,-2.9976808E-2,-2.1457191E-1,2.9223023E-3,-2.3627973E-1,-6.390683E-2,-2.601972E-2,7.0228055E-3,1.5438604E-2,-3.0596632E-1,4.1272603E-3,-2.0656417E-1,-2.2974966E-1,3.0678704E-2,-2.5065875E-1,-3.4336146E-2,2.2367355E-3,1.514037E-2,4.2858507E-2,2.45888E-2,6.6794176E-3,3.362411E-2,2.3565339E-1,-5.202568E-3,1.100851E-1,-2.3537545E-1,-3.57787E-1,-2.313058E-1,-1.7188215E-1,1.9536482E-1,-1.843127E-1,2.1957189E-2,4.376551E-3,2.2746922E-2,-6.642179E-3,4.248306E-2,-2.604358E-1,-4.0125895E-1,-8.15436E-3,-2.6908213E-1,-1.4506659E-1,8.327007E-2,-2.330729E-1,2.8714823E-2,-7.4448455E-3,1.8620377E-2,-2.3440097E-1,-3.3697587E-1,-1.0047099E-3,8.211683E-3,2.2649875E-1,-1.9550194E-1,-1.682608E-1,-6.0331933E-2,6.051871E-2,1.6272907E-1,4.1227866E-2,-2.950894E-1,2.0010348E-1,1.1673706E-1,1.2665054E-1,-3.1784388E-1,2.0576535E-1,-4.130368E-1,-2.5554258E-1,1.7529258E-1,-1.9489925E-2,1.8049671E-1,1.3969168E-1,-2.5773314E-1,2.2490482E-1,-1.4677411E-1,1.6141604E-1,-1.7848921E-1,-2.4249525E-1,-3.3700407E-1,1.7759454E-1,-2.708141E-1,3.5320938E-2,-1.4974983E-1,1.9757162E-1,-1.379314E-1],"split_indices":[1823,383,782,2454,557,866,1550,199,0,1496,1681,1924,2449,923,2405,1311,1379,0,505,4,0,505,2410,627,1235,0,0,0,1272,665,34,352,0,1552,0,0,1605,0,1364,1283,1286,1402,99,0,2485,0,1283,1293,0,0,0,0,0,0,1283,0,1283,817,882,0,0,8,0,209,1219,0,1281,1280,1613,0,0,0,1528,0,0,0,1,0,0,0,0,0,0,0,0,0,0,0,0,0,0,0,0,0,0,0,0,0,0,0,0,0,0,0,0],"split_type":[0,0,0,0,0,0,0,0,0,0,0,0,0,0,0,0,0,0,0,0,0,0,0,0,0,0,0,0,0,0,0,0,0,0,0,0,0,0,0,0,0,0,0,0,0,0,0,0,0,0,0,0,0,0,0,0,0,0,0,0,0,0,0,0,0,0,0,0,0,0,0,0,0,0,0,0,0,0,0,0,0,0,0,0,0,0,0,0,0,0,0,0,0,0,0,0,0,0,0,0,0,0,0,0,0],"sum_hessian":[3.0157273E3,9.1752655E2,2.098201E3,1.7583623E2,7.416903E2,1.8042618E3,2.93939E2,1.401149E2,3.5721325E1,9.110943E1,6.505809E2,6.849539E2,1.119308E3,3.60727E1,2.578663E2,3.757188E1,1.0254302E2,2.3957556E1,6.715187E1,6.409519E2,9.6289625E0,5.4855553E1,6.300984E2,2.5292043E2,8.663875E2,9.948506E0,2.6124193E1,2.2120526E2,3.6661037E1,2.490522E1,1.2666659E1,9.868272E1,3.860311E0,6.179169E1,5.360181E0,8.250603E0,6.3270135E2,3.131633E1,2.3539223E1,6.866948E1,5.614289E2,5.4612373E1,1.9830806E2,5.589239E1,8.104951E2,1.7510971E1,8.613222E0,2.0854977E1,1.5806062E1,7.696445E0,1.7208776E1,2.1511934E0,1.0515466E1,2.2364292E0,9.644628E1,2.4980247E1,3.6811443E1,4.4025674E2,1.924446E2,1.2204311E1,1.1334911E1,2.1665077E1,4.7004402E1,3.2654645E2,2.3488245E2,1.9546078E1,3.5066296E1,8.344866E0,1.8996318E2,3.5050255E1,2.0842138E1,5.9328533E1,7.5116656E2,6.474488E0,2.138734E0,2.4824007E0,1.8372576E1,2.9425957E1,6.7020325E1,2.28337E1,2.1465466E0,1.8834213E1,1.7977232E1,4.328967E2,7.360043E0,1.9006445E2,2.3801441E0,8.431016E0,1.323406E1,4.113783E1,2.8540863E2,1.64245E2,7.063744E1,3.3883354E1,1.1829399E0,4.549735E0,3.795131E0,1.6567923E2,2.4283953E1,5.096808E0,5.4231724E1,6.71812E2,7.9354546E1,1.7326708E1,1.0458677E0],"tree_param":{"num_deleted":"0","num_feature":"2560","num_nodes":"105","size_leaf_vector":"0"}},{"base_weights":[-2.003785E-2,-1.6412093E-1,4.4095445E-1,-1.0014253E-1,-8.987581E-1,6.793849E-1,1.2480898E-1,-6.614635E-2,-1.1558782E0,-1.1015576E0,2.634866E-1,7.3316133E-1,-5.4151523E-1,1.880543E-1,-1.0771639E0,4.6198303E-1,-1.2943643E-1,3.3668447E-1,-1.1731651E0,8.2890725E-1,-1.1698457E0,9.235033E-1,4.2220825E-1,6.08928E-1,-1.2330194E0,-5.2880507E-2,4.381325E-1,7.346762E-1,-1.3270853E0,-1.2201546E0,-6.7284785E-2,9.93233E-1,-9.2855334E-1,-1.601485E0,-1.1359313E0,-8.4799343E-1,1.0331178E0,-1.0938512E0,9.4596505E-1,5.5300313E-1,-2.2353723E0,-6.409987E-1,1.0028764E0,6.6310596E-1,-3.0704448E-1,5.0771016E-1,-1.908837E0,8.583954E-1,-1.23767E0,-1.6204399E0,-1.1536263E0,-4.3358055E-1,5.385292E-2,8.141549E-1,1.0720503E0,7.5225E-1,-4.739295E-1,-8.4159833E-1,-2.4762964E0,-1.7824601E0,9.610439E-1,1.4736094E-1,-1.5579922E0,5.8801E-1,-2.0361915E-1,-1.0920898E0,9.4001883E-1,-8.4120274E-1,1.8281886E-1,1.04477555E-1,-1.289508E0,-2.1832151E0,8.7274677E-1,1.1005797E0,2.8001192E-1,8.064501E-1,-1.2147992E0,-1.9379292E0,1.23619996E-1,1.0356915E0,4.6563262E-1,-1.3455981E0,2.2823428E-1,-2.0596154E0,2.3302354E-1,7.552383E-3,6.219419E-1,-2.5001907E0,1.0784063E0],"categories":[],"categories_nodes":[],"categories_segments":[],"categories_sizes":[],"default_left":[true,true,true,true,true,true,true,true,false,true,true,true,true,true,false,true,true,true,true,true,false,true,true,true,false,true,true,true,false,true,true,false,false,false,false,false,false,false,true,true,true,false,false,true,true,true,false,true,false,false,false,true,true,true,true,true,true,false,false,false,true,true,true,true,true,false,false,false,false,false,false,false,false,false,false,false,false,false,false,false,false,false,false,false,false,false,false,false,false],"id":8,"left_children":[1,3,5,7,9,11,13,15,-1,17,19,21,23,25,-1,27,29,31,33,35,-1,37,39,41,-1,43,45,47,-1,49,51,-1,-1,-1,-1,-1,-1,-1,53,55,57,-1,-1,59,61,63,-1,65,-1,-1,-1,67,69,71,73,75,77,-1,-1,-1,79,81,83,85,87,-1,-1,-1,-1,-1,-1,-1,-1,-1,-1,-1,-1,-1,-1,-1,-1,-1,-1,-1,-1,-1,-1,-1,-1],"loss_changes":[1.8540866E2,9.986238E1,5.0020462E1,7.017529E1,4.0416367E1,2.526123E1,2.2020622E1,6.3479786E1,0E0,1.5342941E1,2.2121225E1,2.1104248E1,1.3918663E1,1.6502953E1,0E0,1.0014016E2,1.14828545E2,7.285865E0,3.8931274E-1,7.4855947E0,0E0,1.1204056E1,4.9806744E1,4.032286E0,0E0,2.5715977E1,2.2902668E1,4.425894E1,0E0,5.626221E-1,7.123074E1,0E0,0E0,0E0,0E0,0E0,0E0,0E0,2.8247833E0,2.7770428E1,1.8348694E-1,0E0,0E0,2.8705229E1,5.9432076E1,7.616089E0,0E0,2.7640045E1,0E0,0E0,0E0,1.0038851E2,8.220865E1,2.1738495E1,2.1899872E0,1.2983902E1,1.9821646E1,0E0,0E0,0E0,7.629795E-1,9.641762E0,2.5489944E1,2.3230705E0,4.407852E1,0E0,0E0,0E0,0E0,0E0,0E0,0E0,0E0,0E0,0E0,0E0,0E0,0E0,0E0,0E0,0E0,0E0,0E0,0E0,0E0,0E0,0E0,0E0,0E0],"parents":[2147483647,0,0,1,1,2,2,3,3,4,4,5,5,6,6,7,7,9,9,10,10,11,11,12,12,13,13,15,15,16,16,17,17,18,18,19,19,21,21,22,22,23,23,25,25,26,26,27,27,29,29,30,30,38,38,39,39,40,40,43,43,44,44,45,45,47,47,51,51,52,52,53,53,54,54,55,55,56,56,60,60,61,61,62,62,63,63,64,64],"right_children":[2,4,6,8,10,12,14,16,-1,18,20,22,24,26,-1,28,30,32,34,36,-1,38,40,42,-1,44,46,48,-1,50,52,-1,-1,-1,-1,-1,-1,-1,54,56,58,-1,-1,60,62,64,-1,66,-1,-1,-1,68,70,72,74,76,78,-1,-1,-1,80,82,84,86,88,-1,-1,-1,-1,-1,-1,-1,-1,-1,-1,-1,-1,-1,-1,-1,-1,-1,-1,-1,-1,-1,-1,-1,-1],"split_conditions":[-5.3946845E-2,-4.7287382E-2,1.2208618E-2,1.1567509E-1,4.732678E-2,6.9446795E-2,1.1295243E-1,1.1700163E-1,-2.3117565E-1,-3.1577412E-2,-5.0265364E-2,-2.3660135E-2,-4.448849E-2,1.6183868E-2,-2.154328E-1,-2.4514351E-2,3.6298655E-2,-6.494725E-2,6.8005878E-3,-1.3640227E-2,-2.3396914E-1,-1.760097E-3,-2.9199445E-3,-8.932358E-3,-2.4660388E-1,1.0509592E-1,1.17599934E-1,-2.6209451E-2,-2.6541707E-1,-5.433508E-2,2.8031528E-2,1.986466E-1,-1.8571067E-1,-3.20297E-1,-2.2718625E-1,-1.6959868E-1,2.0662355E-1,-2.1877025E-1,-9.77557E-3,-2.624643E-2,-2.6303705E-2,-1.2819974E-1,2.0057528E-1,7.400267E-2,-4.5853227E-2,-7.1967198E-3,-3.817674E-1,3.1347197E-2,-2.4753399E-1,-3.2408798E-1,-2.3072527E-1,3.5336163E-2,1.1376229E-1,-3.7572265E-2,-1.3506973E-2,-2.1321658E-2,2.6607886E-2,-1.6831967E-1,-4.9525928E-1,-3.56492E-1,6.7945436E-2,-3.3184555E-3,3.0406214E-2,-2.0282194E-2,7.6971436E-3,-2.1841796E-1,1.8800376E-1,-1.6824055E-1,3.6563773E-2,2.089551E-2,-2.579016E-1,-4.3664303E-1,1.7454936E-1,2.2011594E-1,5.6002386E-2,1.6129003E-1,-2.4295984E-1,-3.8758585E-1,2.4724E-2,2.071383E-1,9.312653E-2,-2.6911962E-1,4.5646857E-2,-4.1192308E-1,4.6604708E-2,1.5104766E-3,1.2438839E-1,-5.0003815E-1,2.1568127E-1],"split_indices":[2438,645,587,2483,2484,1145,1021,872,0,1290,148,1299,1280,611,0,1810,1448,1,1337,1282,0,34,321,10,0,1292,1379,1468,0,988,922,0,0,0,0,0,0,0,1282,1062,1282,0,0,1269,948,1282,0,1460,0,0,0,2408,2483,754,220,608,1285,0,0,0,178,1300,1281,11,0,0,0,0,0,0,0,0,0,0,0,0,0,0,0,0,0,0,0,0,0,0,0,0,0],"split_type":[0,0,0,0,0,0,0,0,0,0,0,0,0,0,0,0,0,0,0,0,0,0,0,0,0,0,0,0,0,0,0,0,0,0,0,0,0,0,0,0,0,0,0,0,0,0,0,0,0,0,0,0,0,0,0,0,0,0,0,0,0,0,0,0,0,0,0,0,0,0,0,0,0,0,0,0,0,0,0,0,0,0,0,0,0,0,0,0,0],"sum_hessian":[2.7893188E3,2.1256052E3,6.637137E2,1.9563647E3,1.6924043E2,3.7770633E2,2.8600732E2,1.8963618E3,6.0002884E1,1.4414146E2,2.5098965E1,3.6215417E2,1.5552159E1,2.7251187E2,1.3495462E1,2.022629E2,1.694099E3,6.660613E0,1.3748085E2,1.83012E1,6.7977624E0,2.2342213E2,1.3873203E2,5.8834243E0,9.668735E0,1.3919484E2,1.3331703E2,1.7602255E2,2.6240335E1,9.032506E1,1.6037739E3,4.526655E0,2.1339579E0,7.635392E0,1.2984546E2,1.6445147E0,1.6656687E1,1.9350111E0,2.2148712E2,1.3297926E2,5.7527637E0,1.2596548E0,4.6237698E0,3.6045307E1,1.0314953E2,1.3023965E2,3.07738E0,1.6616437E2,9.858196E0,9.543988E0,8.0781075E1,3.9793134E2,1.2058425E3,1.11931046E2,1.09556076E2,1.1159495E2,2.1384321E1,1.5100653E0,4.2426987E0,3.373329E0,3.2671978E1,7.6311615E1,2.6837914E1,1.17184425E2,1.305523E1,6.177052E0,1.599873E2,2.393112E2,1.5862013E2,1.1629393E3,4.290321E1,1.4508104E0,1.1048024E2,1.0537104E2,4.1850357E0,1.09176704E2,2.4182372E0,5.548163E0,1.5836159E1,2.7445913E1,5.226064E0,3.1177716E0,7.319385E1,2.0848692E1,5.98922E0,6.5394673E0,1.1064496E2,4.336608E0,8.718622E0],"tree_param":{"num_deleted":"0","num_feature":"2560","num_nodes":"89","size_leaf_vector":"0"}},{"base_weights":[-1.9739535E-2,2.9170862E-1,-1.875229E-1,-1.2510842E0,3.4008306E-1,-5.108917E-1,-6.746793E-3,3.798445E-1,-1.2377926E0,-7.5704075E-2,-8.411682E-1,-1.2731577E0,4.7820665E-2,4.665575E-1,-1.7916673E-1,-1.2722119E0,1.9980411E-1,1.3644478E-1,-1.0971812E0,-2.3748218E-1,2.1624984E-1,-5.5784E-1,5.0612503E-1,-1.5846633E0,2.7080846E-1,-1.4243644E0,3.7414262E-1,-1.3835586E0,7.378617E-1,-1.1676251E0,1.1893182E-2,-1.120358E0,2.1968083E-1,-8.984859E-1,3.862044E-1,-1.4059335E0,7.2365016E-1,8.5756767E-1,3.994338E-1,-1.2109426E0,-1.791218E0,-4.9726315E-2,4.6746942E-1,4.8509726E-1,-1.440643E0,-1.7238408E0,-1.0761706E0,9.6101695E-1,-9.909661E-1,-1.2953762E0,-1.1168734E0,9.740179E-1,-1.0537369E0,-1.3599755E0,2.2997935E-1,5.758637E-1,-2.2170009E-1,-1.2831353E0,4.2953467E-1,4.1957238E-1,-1.2146325E0,5.088933E-1,9.3275315E-1,-2.3914218E0,9.346656E-1,-1.1527396E0,4.642977E-1,-1.6310394E0,4.296601E-1,5.8639514E-1,-1.3789732E0,-1.380881E0,5.982879E-1,-8.388011E-1,1.0759246E0,-1.2388624E0,1.0851109E0,8.047473E-1,-1.2808629E0,-1.4154679E0,4.1324794E-1,-1.1704153E0,8.4220886E-1,8.3968036E-2,5.522285E-1],"categories":[],"categories_nodes":[],"categories_segments":[],"categories_sizes":[],"default_left":[true,true,true,false,true,true,true,true,false,true,true,false,true,true,true,false,true,true,true,true,true,true,true,true,true,false,true,true,true,true,true,true,true,true,true,false,true,true,true,false,false,true,true,true,false,false,false,true,false,false,false,false,false,false,true,true,true,false,true,true,false,false,false,false,false,false,false,false,false,false,false,false,false,false,false,false,false,false,false,false,false,false,false,false,false],"id":9,"left_children":[1,3,5,-1,7,9,11,13,-1,15,17,-1,19,21,23,-1,25,27,29,31,33,35,37,39,41,-1,43,45,47,49,51,53,55,57,59,-1,61,63,65,-1,-1,67,69,71,-1,-1,-1,73,-1,-1,-1,-1,-1,-1,75,77,79,-1,81,83,-1,-1,-1,-1,-1,-1,-1,-1,-1,-1,-1,-1,-1,-1,-1,-1,-1,-1,-1,-1,-1,-1,-1,-1,-1],"loss_changes":[1.376765E2,6.926911E1,1.0008557E2,0E0,5.6632935E1,8.817882E1,7.6023346E1,4.2446976E1,0E0,8.793902E1,8.7483246E1,0E0,5.0737587E1,3.0960236E1,7.510959E1,0E0,6.199884E1,6.803284E1,2.16268E1,1.5847418E2,1.2610065E2,3.2125053E1,2.7001038E1,5.2772522E-2,5.7155013E0,0E0,4.0331276E1,3.5497284E-1,2.1467186E1,2.3977661E-1,1.8980207E1,4.3639847E1,4.0864307E1,4.556067E1,3.1312668E1,0E0,6.685066E-2,4.455696E1,5.704563E1,0E0,0E0,2.7414991E1,1.3118916E1,4.0160572E1,0E0,0E0,0E0,1.074757E1,0E0,0E0,0E0,0E0,0E0,0E0,2.7766474E1,6.2089867E1,8.884527E1,0E0,1.4546312E1,2.51352E1,0E0,0E0,0E0,0E0,0E0,0E0,0E0,0E0,0E0,0E0,0E0,0E0,0E0,0E0,0E0,0E0,0E0,0E0,0E0,0E0,0E0,0E0,0E0,0E0,0E0],"parents":[2147483647,0,0,1,1,2,2,4,4,5,5,6,6,7,7,9,9,10,10,12,12,13,13,14,14,16,16,17,17,18,18,19,19,20,20,21,21,22,22,23,23,24,24,26,26,27,27,28,28,29,29,30,30,31,31,32,32,33,33,34,34,36,36,37,37,38,38,41,41,42,42,43,43,47,47,54,54,55,55,56,56,58,58,59,59],"right_children":[2,4,6,-1,8,10,12,14,-1,16,18,-1,20,22,24,-1,26,28,30,32,34,36,38,40,42,-1,44,46,48,50,52,54,56,58,60,-1,62,64,66,-1,-1,68,70,72,-1,-1,-1,74,-1,-1,-1,-1,-1,-1,76,78,80,-1,82,84,-1,-1,-1,-1,-1,-1,-1,-1,-1,-1,-1,-1,-1,-1,-1,-1,-1,-1,-1,-1,-1,-1,-1,-1,-1],"split_conditions":[4.9927793E-2,-3.4553386E-2,-2.8179262E-2,-2.5021684E-1,1.0540947E-1,-2.9759534E-2,-2.0355675E-2,-2.4177555E-2,-2.4755852E-1,6.314218E-2,7.0381865E-2,-2.5463155E-1,1.3916025E-1,1.8794384E-2,5.2477438E-2,-2.544424E-1,7.905081E-3,5.3148482E-2,1.0794608E-1,5.7296786E-2,-3.1173974E-2,1.7021235E-2,-1.9494336E-2,-3.3823576E-2,-4.106274E-2,-2.848729E-1,-8.1451307E-4,-4.0488876E-2,1.0464846E-1,6.2453314E-3,6.993644E-2,1.6892176E-2,-3.868074E-2,-8.187339E-2,1.1041778E-1,-2.811867E-1,1.1004264E-2,-4.137437E-2,-1.2520607E-1,-2.4218853E-1,-3.582436E-1,-5.2134186E-2,5.2045368E-2,-3.484264E-2,-2.8812858E-1,-3.4476817E-1,-2.1523412E-1,4.5397403E-3,-1.9819322E-1,-2.5907525E-1,-2.2337468E-1,1.9480358E-1,-2.1074739E-1,-2.719951E-1,3.1806216E-2,-3.506676E-2,9.345766E-2,-2.5662705E-1,6.535425E-2,-2.6453037E-2,-2.4292651E-1,1.0177866E-1,1.8655063E-1,-4.7828436E-1,1.8693313E-1,-2.3054793E-1,9.2859544E-2,-3.2620788E-1,8.5932024E-2,1.1727903E-1,-2.7579466E-1,-2.7617618E-1,1.19657576E-1,-1.6776022E-1,2.1518493E-1,-2.4777249E-1,2.1702218E-1,1.6094945E-1,-2.561726E-1,-2.8309357E-1,8.264959E-2,-2.3408306E-1,1.6844177E-1,1.6793607E-2,1.104457E-1],"split_indices":[1685,707,1163,0,88,863,1956,112,0,2167,1363,0,1748,926,1922,0,1660,595,1944,1263,707,1522,1531,766,1633,0,1282,1280,1379,326,393,1365,515,1489,775,0,0,982,1103,0,0,1,100,2465,0,0,0,686,0,0,0,0,0,0,54,1353,1363,0,20,1503,0,0,0,0,0,0,0,0,0,0,0,0,0,0,0,0,0,0,0,0,0,0,0,0,0],"split_type":[0,0,0,0,0,0,0,0,0,0,0,0,0,0,0,0,0,0,0,0,0,0,0,0,0,0,0,0,0,0,0,0,0,0,0,0,0,0,0,0,0,0,0,0,0,0,0,0,0,0,0,0,0,0,0,0,0,0,0,0,0,0,0,0,0,0,0,0,0,0,0,0,0,0,0,0,0,0,0,0,0,0,0,0,0],"sum_hessian":[2.6326167E3,9.214447E2,1.7111719E3,2.7257761E1,8.9418695E2,6.129367E2,1.0982352E3,8.729485E2,2.123846E1,2.6499554E2,3.4794113E2,4.4443813E1,1.0537914E3,7.558651E2,1.1708332E2,4.8920486E1,2.1607507E2,7.2304756E1,2.7563635E2,3.9102414E2,6.6276733E2,2.7622543E1,7.282426E2,2.7782639E1,8.930068E1,2.0250229E1,1.9582484E2,2.0129515E1,5.2175243E1,2.59125E2,1.6511354E1,1.3290553E2,2.581186E2,8.711189E1,5.756554E2,1.65636E1,1.1058942E1,1.6795573E2,5.6028687E2,1.2332305E1,1.5450335E1,3.424022E1,5.5060467E1,1.8523256E2,1.0592282E1,7.366588E0,1.2762926E1,4.6603794E1,5.5714474E0,6.670159E1,1.9242342E2,8.722261E0,7.7890925E0,1.1286966E2,2.0035875E1,1.4267717E2,1.1544143E2,6.757359E1,1.9538296E1,5.6462427E2,1.10311775E1,7.149662E0,3.90928E0,3.197366E0,1.6475838E2,2.1801933E1,5.384849E2,7.4065347E0,2.6833683E1,5.2369846E1,2.6906195E0,9.953117E0,1.7527945E2,2.4187496E0,4.4185043E1,7.207302E0,1.2828573E1,1.27523575E2,1.5153589E1,3.9655582E1,7.578585E1,3.629694E0,1.5908603E1,1.6041814E2,4.0420612E2],"tree_param":{"num_deleted":"0","num_feature":"2560","num_nodes":"85","size_leaf_vector":"0"}},{"base_weights":[-2.2783142E-2,5.033685E-1,-1.042484E-1,8.049097E-1,-2.9557484E-1,-3.7148863E-2,-7.895197E-1,-1.6334178E0,8.706219E-1,1.3363837E-1,-1.8718053E0,1.8476026E-2,-7.3917776E-1,-1.312719E0,-1.0402206E-1,-1.0479608E0,9.1668797E-1,5.42782E-1,-1.480495E0,-1.3693299E0,-2.439777E0,-1.1273354E-1,2.9877663E-1,2.7119273E-1,-1.1599462E0,3.841956E-1,-1.3980939E0,4.7853783E-1,-1.412072E0,-8.54356E-1,9.394453E-1,6.788445E-1,-1.2220423E0,-2.717095E0,-7.2653735E-1,-2.0331798E-1,3.721794E-1,-5.70429E-1,4.3442595E-1,-1.4355135E0,5.9633464E-1,-1.2453762E0,-1.8159246E0,-1.4599841E0,7.510873E-1,7.3935676E-1,1.1095196E0,-2.792545E-1,7.630877E-1,-9.277758E-1,-5.2516963E-2,5.594455E-1,-1.1421747E0,9.363359E-2,-1.4053961E0,4.8318762E-1,-1.2158196E0,-3.1492752E-1,9.716294E-1,-1.9553243E0,-9.298625E-1,-7.731163E-2,1.0828938E0,-1.1588501E0,8.430799E-1,1.1734228E0,5.683336E-1,-1.7019519E0,6.604328E-1,5.620721E-1,1.0690782E0,-1.0552368E0,6.405425E-1,1.4472733E-1,-3.7870303E-1,-1.0792415E0,6.567605E-1,3.7462613E-1,-1.1268947E0,7.7107775E-1,2.538814E-1,-1.0977476E0,7.773291E-1,3.6104375E-1,1.0579956E0,-9.084643E-1,1.5120855E-1,1.1304377E0,5.983615E-1],"categories":[],"categories_nodes":[],"categories_segments":[],"categories_sizes":[],"default_left":[true,true,true,true,true,true,true,false,true,true,true,true,true,true,true,false,true,true,false,false,true,true,true,true,false,false,true,true,false,false,true,true,false,false,false,true,true,true,true,false,true,false,true,false,true,true,true,true,true,true,true,true,false,true,false,true,false,true,true,false,false,true,true,false,false,false,false,false,false,false,false,false,false,false,false,false,false,false,false,false,false,false,false,false,false,false,false,false,false],"id":10,"left_children":[1,3,5,7,9,11,13,-1,15,17,19,21,23,25,27,-1,29,31,-1,-1,33,35,37,39,-1,-1,41,43,-1,-1,45,47,-1,-1,-1,49,51,53,55,-1,57,-1,59,-1,61,63,65,67,69,71,73,75,-1,77,-1,79,-1,81,83,-1,-1,85,87,-1,-1,-1,-1,-1,-1,-1,-1,-1,-1,-1,-1,-1,-1,-1,-1,-1,-1,-1,-1,-1,-1,-1,-1,-1,-1],"loss_changes":[1.0449433E2,7.8983185E1,9.702722E1,3.9486847E1,6.1337257E1,7.513002E1,6.736122E1,0E0,2.1463806E1,4.8288517E1,2.1933517E0,6.5621284E1,6.03638E1,1.5987747E1,6.358036E1,0E0,9.954849E0,1.4779423E1,0E0,0E0,1.7429047E0,5.346476E1,6.732373E1,2.4350815E1,0E0,0E0,4.2315216E0,3.166681E1,0E0,0E0,6.825302E0,4.6183014E0,0E0,0E0,0E0,1.1190723E2,5.4993202E1,4.2952625E1,4.0231094E1,0E0,1.2710111E1,0E0,1.2763901E0,0E0,1.4208824E1,2.1891552E1,3.4640503E0,7.999888E0,2.501318E0,3.5958603E1,5.469581E1,2.8017006E1,0E0,1.5496705E1,0E0,3.144094E1,0E0,1.0545544E1,9.8566246E-1,0E0,0E0,3.1060493E0,1.7037964E-1,0E0,0E0,0E0,0E0,0E0,0E0,0E0,0E0,0E0,0E0,0E0,0E0,0E0,0E0,0E0,0E0,0E0,0E0,0E0,0E0,0E0,0E0,0E0,0E0,0E0,0E0],"parents":[2147483647,0,0,1,1,2,2,3,3,4,4,5,5,6,6,8,8,9,9,10,10,11,11,12,12,13,13,14,14,16,16,17,17,20,20,21,21,22,22,23,23,26,26,27,27,30,30,31,31,35,35,36,36,37,37,38,38,40,40,42,42,44,44,45,45,46,46,47,47,48,48,49,49,50,50,51,51,53,53,55,55,57,57,58,58,61,61,62,62],"right_children":[2,4,6,8,10,12,14,-1,16,18,20,22,24,26,28,-1,30,32,-1,-1,34,36,38,40,-1,-1,42,44,-1,-1,46,48,-1,-1,-1,50,52,54,56,-1,58,-1,60,-1,62,64,66,68,70,72,74,76,-1,78,-1,80,-1,82,84,-1,-1,86,88,-1,-1,-1,-1,-1,-1,-1,-1,-1,-1,-1,-1,-1,-1,-1,-1,-1,-1,-1,-1,-1,-1,-1,-1,-1,-1],"split_conditions":[-3.610722E-2,4.143145E-2,-4.895115E-2,3.1692255E-2,4.1085992E-2,-6.365657E-2,6.1723366E-3,-3.2668358E-1,2.4114788E-2,2.4917025E-2,6.378934E-2,-2.485388E-2,4.3787565E-3,-2.9261038E-2,1.0122806E-2,-2.0959215E-1,-3.3138946E-2,-3.529217E-2,-2.96099E-1,-2.73866E-1,8.912995E-2,1.6574482E-2,4.911098E-3,8.786182E-2,-2.3198925E-1,7.683912E-2,7.418157E-2,8.24275E-2,-2.824144E-1,-1.708712E-1,6.581249E-2,-1.8452805E-2,-2.4440847E-1,-5.43419E-1,-1.4530747E-1,-4.748601E-2,-1.5483364E-2,-3.0864224E-2,-5.4819316E-2,-2.871027E-1,-5.8617435E-2,-2.4907525E-1,3.7409935E-2,-2.919968E-1,2.8044365E-2,5.7837768E-3,-1.3398392E-2,2.190197E-2,3.4972772E-2,8.251547E-3,-6.3319124E-2,-4.606761E-2,-2.2843495E-1,1.6828516E-2,-2.8107923E-1,-1.9357707E-2,-2.4316393E-1,-7.944882E-2,5.549182E-3,-3.9106485E-1,-1.859725E-1,4.7999263E-2,1.7141728E-2,-2.3177002E-1,1.6861598E-1,2.3468457E-1,1.1366673E-1,-3.4039038E-1,1.3208656E-1,1.1241442E-1,2.1381564E-1,-2.1104737E-1,1.281085E-1,2.8945467E-2,-7.5740606E-2,-2.1584831E-1,1.3135211E-1,7.492523E-2,-2.2537895E-1,1.5421556E-1,5.077628E-2,-2.1954952E-1,1.5546583E-1,7.2208755E-2,2.1159911E-1,-1.8169287E-1,3.0241711E-2,2.2608756E-1,1.196723E-1],"split_indices":[2197,642,1,1261,1267,309,1802,0,736,1288,1311,2109,2145,1300,1485,0,557,574,0,0,428,776,1143,1099,0,0,1732,32,0,0,229,391,0,0,0,2449,1633,1956,1112,0,1315,0,40,0,2221,1285,1290,1288,6,283,1992,2457,0,861,0,785,0,4,0,0,0,1283,1283,0,0,0,0,0,0,0,0,0,0,0,0,0,0,0,0,0,0,0,0,0,0,0,0,0,0],"split_type":[0,0,0,0,0,0,0,0,0,0,0,0,0,0,0,0,0,0,0,0,0,0,0,0,0,0,0,0,0,0,0,0,0,0,0,0,0,0,0,0,0,0,0,0,0,0,0,0,0,0,0,0,0,0,0,0,0,0,0,0,0,0,0,0,0,0,0,0,0,0,0,0,0,0,0,0,0,0,0,0,0,0,0,0,0,0,0,0,0],"sum_hessian":[2.4356392E3,3.2586005E2,2.1097793E3,2.3656647E2,8.929357E1,1.9225806E3,1.8719861E2,5.582016E0,2.3098445E2,7.090194E1,1.8391636E1,1.7823322E3,1.4024846E2,1.0564848E2,8.1550125E1,4.906044E0,2.260784E2,5.709378E1,1.3808157E1,1.1568278E1,6.823357E0,1.2144447E3,5.678875E2,4.133889E1,9.890957E1,4.8931026E0,1.0075538E2,5.686057E1,2.4689558E1,2.4045818E0,2.2367383E2,5.35784E1,3.5153806E0,5.36844E0,1.4549172E0,1.02377795E3,1.9066672E2,7.622869E1,4.9165878E2,6.068679E0,3.527021E1,7.6701454E1,2.405392E1,6.471923E0,5.0388645E1,1.05225586E2,1.18448235E2,4.143175E0,4.9435223E1,1.7550212E2,8.482758E2,1.702447E2,2.0422007E1,4.2954308E1,3.3274384E1,4.7823505E2,1.3423747E1,1.0335408E1,2.4934801E1,1.9741358E1,4.312563E0,1.4629974E1,3.575867E1,4.9248486E0,1.00300735E2,1.048941E2,1.355414E1,1.3253659E0,2.817809E0,3.1547493E1,1.788773E1,1.626133E2,1.2888824E1,5.289667E2,3.1930917E2,8.977778E0,1.6126692E2,3.547926E1,7.4750466E0,2.1098465E2,2.672504E2,6.0175815E0,4.3178267E0,3.7318687E0,2.1202932E1,2.5133233E0,1.2116652E1,3.1349508E1,4.409161E0],"tree_param":{"num_deleted":"0","num_feature":"2560","num_nodes":"89","size_leaf_vector":"0"}},{"base_weights":[-2.2350276E-2,5.274465E-1,-8.367576E-2,-1.1320912E0,7.136314E-1,-2.2315806E-2,-5.936679E-1,-1.6314156E0,-5.624778E-2,7.782945E-1,-1.3253317E0,2.0313405E-2,-6.7556894E-1,2.4534744E-1,-1.134074E0,-1.721122E0,6.5292674E-1,-1.5241537E0,8.350741E-1,-1.1782108E-1,2.2011027E-1,-1.0414301E0,7.021461E-1,-1.2590915E0,4.9046925E-1,-1.3202566E0,4.762943E-1,5.561945E-1,1.0244339E0,-1.6555459E-3,-8.424322E-1,-1.3653466E0,2.934728E-1,2.4709998E-1,-1.2037051E0,-9.729885E-1,9.912515E-1,6.628217E-1,-1.3116509E0,-1.6476345E-1,-1.3808737E0,-1.0514078E0,9.6952784E-1,-5.643189E-1,7.6294816E-1,1.0586212E0,3.0655164E-1,7.205595E-2,-1.0201734E0,-1.3850507E0,7.3864377E-1,3.5912946E-1,-1.144948E0,4.3736035E-1,-7.472548E-1,-1.1104971E0,-2.526725E0,-8.310201E-1,7.066132E-1,8.5017675E-1,-1.1453669E0,-2.1699877E0,-1.322769E0,-1.6949383E0,7.388762E-1,8.0075383E-1,-6.702031E-1,8.9623785E-1,1.1292626E0,-5.3715926E-2,6.8134975E-1,1.3757555E-1,-8.292624E-1,9.173387E-1,-1.2120128E0,-1.5291039E0,-1.1027031E0,-1.3324724E0,9.309047E-1,4.0055224E-1,-4.79885E-1,-1.5077033E0,7.354714E-1,7.457277E-1,8.236843E-2,-3.012565E0,-6.7405534E-1,5.166709E-1,9.740896E-1,-7.865355E-1,-2.469279E0,-1.0868994E0,-1.3871651E0],"categories":[],"categories_nodes":[],"categories_segments":[],"categories_sizes":[],"default_left":[true,true,true,true,true,true,true,false,true,true,false,true,true,true,true,false,false,false,true,true,true,true,true,false,true,true,true,true,true,true,true,false,true,true,true,false,false,true,false,true,true,false,false,true,true,true,true,true,true,true,true,true,true,true,false,false,true,false,true,false,false,true,true,false,false,false,false,false,false,false,false,false,false,false,false,false,false,false,false,false,false,false,false,false,false,false,false,false,false,false,false,false,false],"id":11,"left_children":[1,3,5,7,9,11,13,-1,15,17,-1,19,21,23,25,-1,-1,-1,27,29,31,33,35,-1,37,39,41,43,45,47,49,-1,51,53,55,-1,-1,57,-1,59,61,-1,-1,63,65,67,69,71,73,75,77,79,81,83,-1,-1,85,-1,87,-1,-1,89,91,-1,-1,-1,-1,-1,-1,-1,-1,-1,-1,-1,-1,-1,-1,-1,-1,-1,-1,-1,-1,-1,-1,-1,-1,-1,-1,-1,-1,-1,-1],"loss_changes":[7.712819E1,7.173707E1,6.437791E1,1.2555447E1,2.8325615E1,5.1190365E1,1.0045623E2,0E0,1.1158184E1,2.7586807E1,0E0,4.766506E1,5.7491287E1,3.2840652E1,4.0974213E1,0E0,0E0,0E0,9.837921E0,8.595785E1,8.250952E1,1.8986725E1,1.2696963E1,0E0,2.4430601E1,8.239502E0,1.2081119E1,1.9402052E1,2.5271606E0,6.622393E1,1.2206842E2,0E0,6.420975E1,2.375164E0,7.0043793E0,0E0,0E0,5.1598816E0,0E0,8.100732E0,2.389801E0,0E0,0E0,2.089474E1,4.3054543E0,2.5550842E-1,9.398681E-1,4.869061E1,2.3238384E1,2.600357E0,1.58549595E1,2.267147E1,2.1386894E1,1.0024933E0,0E0,0E0,1.9763203E0,0E0,2.9743004E0,0E0,0E0,6.691532E-1,1.5422058E-1,0E0,0E0,0E0,0E0,0E0,0E0,0E0,0E0,0E0,0E0,0E0,0E0,0E0,0E0,0E0,0E0,0E0,0E0,0E0,0E0,0E0,0E0,0E0,0E0,0E0,0E0,0E0,0E0,0E0,0E0],"parents":[2147483647,0,0,1,1,2,2,3,3,4,4,5,5,6,6,8,8,9,9,11,11,12,12,13,13,14,14,18,18,19,19,20,20,21,21,22,22,24,24,25,25,26,26,27,27,28,28,29,29,30,30,32,32,33,33,34,34,37,37,39,39,40,40,43,43,44,44,45,45,46,46,47,47,48,48,49,49,50,50,51,51,52,52,53,53,56,56,58,58,61,61,62,62],"right_children":[2,4,6,8,10,12,14,-1,16,18,-1,20,22,24,26,-1,-1,-1,28,30,32,34,36,-1,38,40,42,44,46,48,50,-1,52,54,56,-1,-1,58,-1,60,62,-1,-1,64,66,68,70,72,74,76,78,80,82,84,-1,-1,86,-1,88,-1,-1,90,92,-1,-1,-1,-1,-1,-1,-1,-1,-1,-1,-1,-1,-1,-1,-1,-1,-1,-1,-1,-1,-1,-1,-1,-1,-1,-1,-1,-1,-1,-1],"split_conditions":[-3.8375944E-2,-8.083709E-3,-1.5969459E-2,-5.916612E-2,8.608006E-2,-4.7287382E-2,-6.187051E-2,-3.2628313E-1,4.7850865E-3,2.3828644E-2,-2.6506636E-1,-4.0820397E-2,-1.1678757E-2,3.877282E-2,6.249802E-3,-3.4422442E-1,1.3058536E-1,-3.0483076E-1,1.0874419E-2,5.905275E-2,-8.9187056E-2,5.5990912E-2,-2.1224422E-3,-2.518183E-1,-3.8382404E-2,5.011156E-4,6.301436E-2,-1.2139066E-2,3.5613637E-2,5.122112E-2,-4.80972E-2,-2.7306932E-1,6.611175E-2,-9.585968E-3,2.8179761E-2,-1.945977E-1,1.9825031E-1,8.772951E-2,-2.6233017E-1,-2.4347499E-2,-9.58046E-2,-2.1028157E-1,1.9390558E-1,3.416825E-2,7.945399E-2,1.7704844E-2,-9.2367325E-3,4.6126634E-2,-5.554482E-2,8.71934E-3,-6.40253E-3,4.5263533E-2,3.489672E-2,7.04513E-3,-1.4945096E-1,-2.2209942E-1,-7.310382E-2,-1.6620402E-1,-5.713968E-2,1.7003535E-1,-2.2907339E-1,-7.767706E-2,1.305275E-1,-3.3898768E-1,1.4777525E-1,1.6015077E-1,-1.3404062E-1,1.7924757E-1,2.2585252E-1,-1.0743185E-2,1.3626996E-1,2.7515111E-2,-1.6585247E-1,1.8346775E-1,-2.4240255E-1,-3.058208E-1,-2.2054063E-1,-2.6649448E-1,1.8618093E-1,8.011045E-2,-9.5977E-2,-3.0154067E-1,1.470943E-1,1.4914554E-1,1.6473686E-2,-6.02513E-1,-1.3481107E-1,1.0333418E-1,1.9481793E-1,-1.573071E-1,-4.938558E-1,-2.1737988E-1,-2.77433E-1],"split_indices":[2197,976,343,774,1276,645,1977,0,1280,820,0,2212,1814,1437,1308,0,0,0,1143,271,1026,1295,323,0,160,0,3,1298,442,276,2377,0,9,18,1290,0,0,1292,0,1294,1291,0,0,551,393,25,1282,2463,1406,614,72,277,1294,0,0,0,7,0,7,0,0,267,42,0,0,0,0,0,0,0,0,0,0,0,0,0,0,0,0,0,0,0,0,0,0,0,0,0,0,0,0,0,0],"split_type":[0,0,0,0,0,0,0,0,0,0,0,0,0,0,0,0,0,0,0,0,0,0,0,0,0,0,0,0,0,0,0,0,0,0,0,0,0,0,0,0,0,0,0,0,0,0,0,0,0,0,0,0,0,0,0,0,0,0,0,0,0,0,0,0,0,0,0,0,0,0,0,0,0,0,0,0,0,0,0,0,0,0,0,0,0,0,0,0,0,0,0,0,0],"sum_hessian":[2.2852378E3,2.285585E2,2.0566794E3,2.2543055E1,2.0601546E2,1.8367355E3,2.1994395E2,1.5044253E1,7.4988003E0,2.0028204E2,5.7334037E0,1.7251279E3,1.1160743E2,8.6379776E1,1.3356418E2,1.8137836E0,5.6850166E0,4.198222E0,1.9608382E2,1.0201987E3,7.0492926E2,8.8381294E1,2.3226137E1,1.1522662E1,7.485712E1,1.19883965E2,1.368022E1,8.089011E1,1.1519372E2,8.8010724E2,1.400915E2,3.0397163E1,6.745321E2,9.827128E0,7.855417E1,3.0703576E0,2.015578E1,6.889982E1,5.9572926E0,6.1609535E0,1.1372301E2,3.0626254E0,1.0617594E1,1.2331176E1,6.855893E1,1.095042E2,5.689512E0,8.2157776E2,5.8529427E1,1.0438947E2,3.5702034E1,6.458047E2,2.8727411E1,8.718989E0,1.1081393E0,7.510249E1,3.4516723E0,1.4502776E0,6.744955E1,3.092831E0,3.0681229E0,5.3067117E0,1.084163E2,6.441816E0,5.88936E0,6.722679E1,1.3321377E0,3.734542E1,7.215878E1,3.3377979E0,2.351714E0,7.6669196E2,5.4885838E1,4.9323697E0,5.3597057E1,6.619912E1,3.8190357E1,2.5289176E0,3.3173115E1,6.159189E2,2.988579E1,2.424791E1,4.4795017E0,4.076878E0,4.6421113E0,2.2385685E0,1.2131039E0,4.115553E1,2.6294014E1,1.5891192E0,3.7175925E0,2.7085587E1,8.133071E1],"tree_param":{"num_deleted":"0","num_feature":"2560","num_nodes":"93","size_leaf_vector":"0"}},{"base_weights":[-2.2903899E-2,4.8792174E-1,-7.5207084E-2,-1.028775E0,6.6544396E-1,-2.2193829E-2,-5.524708E-1,-1.4798064E0,-7.080181E-2,-8.5452765E-1,7.4683553E-1,4.361305E-4,-1.0831118E0,2.1045786E-1,-1.0688369E0,-1.5091306E0,5.980167E-1,-1.6239672E0,3.184012E-1,7.993402E-1,-1.1802827E0,3.605353E-2,-6.287229E-1,4.235408E-1,-1.2298077E0,-1.2478242E0,4.2538273E-1,-7.684208E-1,-1.9111222E0,5.5597156E-1,1.0079015E0,1.1426667E-1,-2.0609026E-1,-9.945638E-1,6.525079E-1,5.721219E-1,-1.2415452E0,-1.5949728E-1,-1.304963E0,-9.809611E-1,8.830681E-1,1.5444077E-2,8.338701E-1,6.8692213E-1,1.0566871E0,1.5803921E-1,-7.0771325E-1,-8.6912423E-1,4.208805E-1,2.1235368E-1,-1.1747305E0,-9.1430426E-1,9.319398E-1,-7.250658E-1,6.192129E-1,8.0691093E-1,-1.0916307E0,-1.2218201E0,-1.5667183E0,5.114541E-1,-2.479852E0,9.368606E-1,-1.3168439E0,8.3006114E-1,1.4294167E-1,-8.6884487E-1,1.919973E-1,6.445739E-1,-1.386847E0,1.5589355E-1,-1.0979472E0,-7.115839E-1,5.942011E-1,3.889859E-1,-6.9876665E-1,-1.0818186E0,-1.9023688E0,4.3778637E-1,8.939055E-1],"categories":[],"categories_nodes":[],"categories_segments":[],"categories_sizes":[],"default_left":[true,true,true,true,true,true,true,false,true,true,true,true,false,true,true,false,false,true,false,true,false,true,true,true,false,true,true,false,false,true,true,true,true,true,true,true,false,true,true,false,false,true,true,true,false,true,true,true,true,true,true,false,false,false,true,false,false,false,false,false,false,false,false,false,false,false,false,false,false,false,false,false,false,false,false,false,false,false,false],"id":12,"left_children":[1,3,5,7,9,11,13,-1,15,17,19,21,-1,23,25,-1,-1,27,-1,29,-1,31,33,35,-1,37,39,-1,-1,41,43,45,47,49,51,53,-1,55,57,-1,-1,59,61,63,-1,65,67,69,71,73,75,-1,-1,-1,77,-1,-1,-1,-1,-1,-1,-1,-1,-1,-1,-1,-1,-1,-1,-1,-1,-1,-1,-1,-1,-1,-1,-1,-1],"loss_changes":[5.7806908E1,5.4792866E1,4.9635857E1,9.163137E0,2.2969795E1,4.2426975E1,7.749132E1,0E0,8.517952E0,9.218172E0,1.8333748E1,3.8817944E1,0E0,2.507286E1,3.1857117E1,0E0,0E0,2.0284653E-3,0E0,7.962204E0,0E0,3.107234E1,4.4151676E1,1.8135788E1,0E0,6.312393E0,9.411266E0,0E0,0E0,1.19617405E1,6.7077637E-1,4.4720512E1,1.6690143E2,1.6034302E1,1.0141905E1,4.440851E0,0E0,6.618825E0,2.5086975E-1,0E0,0E0,3.6031864E1,1.2891586E1,1.0201349E0,0E0,4.124298E1,5.8630547E1,4.5915604E1,4.0970127E1,1.9255254E0,2.2225494E0,0E0,0E0,0E0,2.778204E0,0E0,0E0,0E0,0E0,0E0,0E0,0E0,0E0,0E0,0E0,0E0,0E0,0E0,0E0,0E0,0E0,0E0,0E0,0E0,0E0,0E0,0E0,0E0,0E0],"parents":[2147483647,0,0,1,1,2,2,3,3,4,4,5,5,6,6,8,8,9,9,10,10,11,11,13,13,14,14,17,17,19,19,21,21,22,22,23,23,25,25,26,26,29,29,30,30,31,31,32,32,33,33,34,34,35,35,37,37,38,38,41,41,42,42,43,43,45,45,46,46,47,47,48,48,49,49,50,50,54,54],"right_children":[2,4,6,8,10,12,14,-1,16,18,20,22,-1,24,26,-1,-1,28,-1,30,-1,32,34,36,-1,38,40,-1,-1,42,44,46,48,50,52,54,-1,56,58,-1,-1,60,62,64,-1,66,68,70,72,74,76,-1,-1,-1,78,-1,-1,-1,-1,-1,-1,-1,-1,-1,-1,-1,-1,-1,-1,-1,-1,-1,-1,-1,-1,-1,-1,-1,-1],"split_conditions":[-3.8375944E-2,-8.083709E-3,-1.5969459E-2,-5.916612E-2,1.2805998E-2,1.1567509E-1,-6.187051E-2,-2.959613E-1,4.7850865E-3,8.218315E-3,6.604448E-3,-4.7287382E-2,-2.1662235E-1,3.148599E-2,6.249802E-3,-3.0182612E-1,1.19603336E-1,-6.197754E-2,6.368024E-2,-1.9774001E-2,-2.3605655E-1,1.7457457E-3,-1.1678757E-2,-3.8382404E-2,-2.4596155E-1,5.011156E-4,6.301436E-2,-1.5368417E-1,-3.8222444E-1,-9.77557E-3,-8.263734E-2,-4.1077144E-2,-2.7567815E-2,5.5990912E-2,-2.1224422E-3,3.712071E-2,-2.4830905E-1,-2.4347499E-2,1.2099309E-1,-1.9619222E-1,1.7661361E-1,-2.8316194E-2,2.6408448E-3,4.1910196E-3,2.1133743E-1,-1.3560761E-2,1.3109205E-2,1.0733007E-1,1.0935295E-1,-9.585968E-3,2.2250507E-2,-1.8286085E-1,1.8638796E-1,-1.4501317E-1,-5.713968E-2,1.6138218E-1,-2.1832614E-1,-2.4436402E-1,-3.1334367E-1,1.02290824E-1,-4.959704E-1,1.8737213E-1,-2.633688E-1,1.6601223E-1,2.8588334E-2,-1.7376898E-1,3.839946E-2,1.2891479E-1,-2.773694E-1,3.1178711E-2,-2.1958946E-1,-1.4231679E-1,1.1884022E-1,7.779718E-2,-1.3975333E-1,-2.1636371E-1,-3.8047376E-1,8.755728E-2,1.787811E-1],"split_indices":[2197,976,343,774,795,2483,1977,0,1280,1280,280,645,0,2416,1308,0,0,188,0,101,0,1528,1814,160,0,0,3,0,0,1282,685,544,557,1295,323,1302,0,1294,2527,0,0,254,1147,1281,0,206,1345,1217,1250,18,1290,0,0,0,7,0,0,0,0,0,0,0,0,0,0,0,0,0,0,0,0,0,0,0,0,0,0,0,0],"split_type":[0,0,0,0,0,0,0,0,0,0,0,0,0,0,0,0,0,0,0,0,0,0,0,0,0,0,0,0,0,0,0,0,0,0,0,0,0,0,0,0,0,0,0,0,0,0,0,0,0,0,0,0,0,0,0,0,0,0,0,0,0,0,0,0,0,0,0,0,0,0,0,0,0,0,0,0,0,0,0],"sum_hessian":[2.1612363E3,1.9996123E2,1.9612751E3,2.044972E1,1.795115E2,1.766143E3,1.951322E2,1.35332775E1,6.9164433E0,8.641131E0,1.7087038E2,1.7302357E3,3.5907284E1,7.900099E1,1.1613121E2,1.7965205E0,5.1199226E0,4.9858685E0,3.6552625E0,1.6690814E2,3.9622262E0,1.6384253E3,9.18104E1,6.9434326E1,9.566669E0,1.0385561E2,1.22755995E1,2.1766782E0,2.8091905E0,7.8718216E1,8.8189926E1,1.2388131E3,3.9961212E2,7.1591896E1,2.021851E1,6.434868E1,5.085643E0,5.3697157E0,9.84859E1,2.7333724E0,9.542227E0,2.7087389E1,5.163083E1,1.3625157E1,7.4564766E1,1.1769456E3,6.186764E1,1.940326E2,2.0557954E2,9.275784E0,6.231611E1,2.7162302E0,1.750228E1,1.7498375E0,6.2598843E1,2.702345E0,2.6673708E0,7.904587E1,1.9440031E1,2.3259035E1,3.8283525E0,4.980999E1,1.8208375E0,1.0370451E1,3.2547061E0,3.6887615E1,1.1400579E3,2.070027E1,4.116737E1,3.546866E1,1.5856393E2,2.6874945E1,1.7870459E2,8.249568E0,1.0262148E0,5.7465153E1,4.8509564E0,3.926149E1,2.333735E1],"tree_param":{"num_deleted":"0","num_feature":"2560","num_nodes":"79","size_leaf_vector":"0"}},{"base_weights":[-2.3044804E-2,3.9482704E-1,-7.684639E-2,6.7099494E-1,-2.738478E-1,-4.991665E-1,-1.6178066E-2,7.604312E-1,-7.3483294E-1,-7.909436E-1,5.8341736E-1,-8.989472E-1,2.8201208E-1,2.0017648E-2,-8.7375003E-1,-8.8307005E-1,7.994818E-1,-1.3223271E0,3.8783923E-1,-1.2294341E0,1.6523167E-1,8.5399866E-1,-5.6800735E-1,-3.477939E-1,-1.2783074E0,-5.6764764E-1,7.665152E-1,-1.4402555E-1,1.7342499E-1,-1.1367543E0,4.7254157E-1,4.8498893E-1,9.0379965E-1,-1.3431709E-1,-1.4098903E0,-1.0979683E0,4.6191955E-1,3.5635805E-1,1.0075667E0,4.5180416E-1,-1.171837E0,3.6137022E-2,-1.2168248E0,4.4507906E-1,-8.7746054E-1,-9.842913E-1,9.313687E-1,9.207642E-2,-6.266479E-1,-2.9118416E-1,3.206669E-1,7.933301E-1,-9.849313E-1,6.3165087E-1,-9.320136E-1,1.0107256E0,6.833799E-1,-1.2193865E0,7.8337973E-1,5.7413626E-1,7.192964E-2,8.0199826E-1,-2.59916E-1,2.2621933E-1,-1.2374611E0,-6.5107507E-1,7.673621E-1,-1.1412178E0,-2.7687442E-1,1.0523744E0,5.481018E-1,2.5331858E-1,-5.5764896E-1,-1.1232249E0,1.3953616E-1,-1.2454654E0,1.5864976E-1,3.6823556E-1,-1.2535157E0,7.478647E-1,3.5266352E-1,1.0244176E0,3.2861668E-1,7.892508E-1,-1.3190773E0,7.8811795E-1,-2.8594352E-2,-9.748089E-1,3.5899043E-1,5.3424057E-2,-8.89999E-1,-1.0384759E0,1.1018304E0,-6.931397E-1,3.6026487E-1,-1.303794E0,5.094281E-1,-1.2138102E0,4.6869802E-1,-1.0979586E0,5.841451E-1,-3.2603893E-1,-1.4017528E0,-1.4891992E0,3.7049693E-1,-7.263561E-1,4.2900282E-1],"categories":[],"categories_nodes":[],"categories_segments":[],"categories_sizes":[],"default_left":[true,true,true,true,true,true,true,true,true,true,true,true,true,true,true,false,true,false,false,true,true,true,true,true,false,true,true,true,true,false,true,true,true,true,false,false,true,true,false,false,false,true,false,true,true,false,true,true,true,true,true,false,false,true,false,true,true,false,false,true,false,false,false,true,false,false,false,false,true,false,true,true,true,true,true,true,true,true,false,false,false,false,false,false,false,false,false,false,false,false,false,false,false,false,false,false,false,false,false,false,false,false,false,false,false,false,false],"id":13,"left_children":[1,3,5,7,9,11,13,15,17,19,21,23,25,27,29,-1,31,-1,-1,33,35,37,39,41,-1,43,45,47,49,-1,51,53,55,57,-1,-1,59,61,-1,-1,-1,63,-1,65,67,-1,69,71,73,75,77,-1,-1,79,-1,81,83,-1,-1,85,-1,-1,-1,87,-1,-1,-1,-1,89,-1,91,93,95,97,99,101,103,105,-1,-1,-1,-1,-1,-1,-1,-1,-1,-1,-1,-1,-1,-1,-1,-1,-1,-1,-1,-1,-1,-1,-1,-1,-1,-1,-1,-1,-1],"loss_changes":[4.6130215E1,4.340584E1,4.6557724E1,2.1421852E1,3.1102425E1,7.153833E1,4.9377857E1,1.0750084E1,7.394405E0,1.8458212E1,8.766892E0,3.1174606E1,3.2557716E1,3.84469E1,2.3347736E1,0E0,4.5940323E0,0E0,0E0,5.733135E0,5.9679065E0,1.3163862E0,4.014007E0,2.1072784E1,0E0,9.461762E0,1.5382599E1,8.419203E1,5.409736E1,0E0,6.03407E0,8.977383E0,1.9967422E0,6.2776484E0,0E0,0E0,5.058856E-1,2.0532548E0,0E0,0E0,0E0,1.1097778E1,0E0,3.1266155E0,3.2443485E0,0E0,1.5714111E0,5.217474E1,9.248881E1,8.197201E1,4.538463E1,0E0,0E0,9.4155407E-1,0E0,3.6094666E-1,9.59197E0,0E0,0E0,1.2563179E0,0E0,0E0,0E0,6.6850157E0,0E0,0E0,0E0,0E0,1.7038713E0,0E0,1.2742606E1,4.0597317E1,7.953934E1,2.1818497E1,5.3638096E1,8.328804E0,4.605766E1,3.9096436E1,0E0,0E0,0E0,0E0,0E0,0E0,0E0,0E0,0E0,0E0,0E0,0E0,0E0,0E0,0E0,0E0,0E0,0E0,0E0,0E0,0E0,0E0,0E0,0E0,0E0,0E0,0E0,0E0,0E0],"parents":[2147483647,0,0,1,1,2,2,3,3,4,4,5,5,6,6,7,7,8,8,9,9,10,10,11,11,12,12,13,13,14,14,16,16,19,19,20,20,21,21,22,22,23,23,25,25,26,26,27,27,28,28,30,30,31,31,32,32,33,33,36,36,37,37,41,41,43,43,44,44,46,46,47,47,48,48,49,49,50,50,53,53,55,55,56,56,59,59,63,63,68,68,70,70,71,71,72,72,73,73,74,74,75,75,76,76,77,77],"right_children":[2,4,6,8,10,12,14,16,18,20,22,24,26,28,30,-1,32,-1,-1,34,36,38,40,42,-1,44,46,48,50,-1,52,54,56,58,-1,-1,60,62,-1,-1,-1,64,-1,66,68,-1,70,72,74,76,78,-1,-1,80,-1,82,84,-1,-1,86,-1,-1,-1,88,-1,-1,-1,-1,90,-1,92,94,96,98,100,102,104,106,-1,-1,-1,-1,-1,-1,-1,-1,-1,-1,-1,-1,-1,-1,-1,-1,-1,-1,-1,-1,-1,-1,-1,-1,-1,-1,-1,-1,-1],"split_conditions":[-3.610722E-2,4.143145E-2,-2.3179773E-2,-7.275167E-2,1.7422503E-1,-8.039372E-2,-1.0765841E-2,2.4114788E-2,1.1142471E-2,3.0858614E-2,1.2239567E-3,1.0187627E-2,-1.3294628E-1,1.1957337E-1,2.8179761E-2,-1.7661402E-1,-5.6405798E-2,-2.6446542E-1,7.7567846E-2,3.0622233E-2,6.378934E-2,4.036798E-3,4.7123715E-2,2.0377189E-1,-2.556615E-1,8.924542E-3,8.286645E-2,1.764451E-2,1.8394869E-2,-2.2735086E-1,4.1811667E-2,-6.799807E-2,-3.6474438E-3,1.1142471E-2,-2.8197807E-1,-2.1959367E-1,8.218315E-3,5.00418E-2,2.0151334E-1,9.0360835E-2,-2.343674E-1,1.1107773E-1,-2.4336496E-1,2.5496962E-2,2.9282914E-2,-1.9685827E-1,-4.7478274E-2,4.120171E-2,-7.837373E-3,-5.111774E-2,1.0330102E-1,1.5866601E-1,-1.9698626E-1,-2.1540783E-2,-1.8640272E-1,-9.588949E-3,9.159168E-2,-2.4387729E-1,1.5667595E-1,4.7530517E-2,1.4385928E-2,1.6039966E-1,-5.1983204E-2,1.1960509E-2,-2.4749222E-1,-1.3021502E-1,1.5347242E-1,-2.2824357E-1,-1.586431E-2,2.1047488E-1,9.162469E-3,-4.6511006E-2,6.53904E-2,-7.575612E-3,-2.7053E-2,-4.739931E-2,6.961095E-2,-1.0150442E-1,-2.5070316E-1,1.4957295E-1,7.05327E-2,2.0488353E-1,6.572334E-2,1.5785016E-1,-2.6381546E-1,1.5762359E-1,-5.7188706E-3,-1.9496177E-1,7.1798086E-2,1.06848115E-2,-1.779998E-1,-2.0769517E-1,2.2036608E-1,-1.3862793E-1,7.205298E-2,-2.6075882E-1,1.0188562E-1,-2.4276204E-1,9.373961E-2,-2.1959172E-1,1.1682903E-1,-6.520779E-2,-2.8035057E-1,-2.9783985E-1,7.4099384E-2,-1.4527123E-1,8.5800566E-2],"split_indices":[2197,642,650,342,571,1622,364,736,1280,1268,1281,1973,1488,1855,1290,0,662,0,0,51,1311,1280,3,1739,0,31,119,219,347,0,9,1291,1296,1280,0,0,1280,3,0,0,0,2483,0,1280,1281,0,1,454,2175,2388,1251,0,0,2,0,2,32,0,0,16,0,0,0,726,0,0,0,0,2,0,1280,2333,1726,1315,367,1280,930,2411,0,0,0,0,0,0,0,0,0,0,0,0,0,0,0,0,0,0,0,0,0,0,0,0,0,0,0,0,0],"split_type":[0,0,0,0,0,0,0,0,0,0,0,0,0,0,0,0,0,0,0,0,0,0,0,0,0,0,0,0,0,0,0,0,0,0,0,0,0,0,0,0,0,0,0,0,0,0,0,0,0,0,0,0,0,0,0,0,0,0,0,0,0,0,0,0,0,0,0,0,0,0,0,0,0,0,0,0,0,0,0,0,0,0,0,0,0,0,0,0,0,0,0,0,0,0,0,0,0,0,0,0,0,0,0,0,0,0,0],"sum_hessian":[2.0495083E3,2.3305484E2,1.8164534E3,1.6493283E2,6.812201E1,2.2725739E2,1.5891959E3,1.5549933E2,9.433501E0,4.253973E1,2.558228E1,1.5022604E2,7.703135E1,1.5257739E3,6.3421993E1,3.1073794E0,1.5239195E2,6.076061E0,3.3574402E0,2.8969076E1,1.3570655E1,2.0923607E1,4.658672E0,6.2026974E1,8.8199066E1,2.7911726E1,4.9119625E1,7.3735675E2,7.8841724E2,5.318726E1,1.02347355E1,3.9365047E1,1.130269E2,4.3450437E0,2.4624033E1,2.067436E0,1.1503219E1,5.7172523E0,1.5206355E1,1.8261852E0,2.8324866E0,4.368549E1,1.8341484E1,6.436213E0,2.1475512E1,3.7992673E0,4.532036E1,4.956774E2,2.4167938E2,1.8949731E2,5.989199E2,8.761925E0,1.4728107E0,3.6175102E1,3.1899436E0,7.36929E1,3.9334E1,1.8403263E0,2.5047174E0,8.566181E0,2.9370375E0,3.1430693E0,2.574183E0,3.8727806E1,4.95768E0,1.2305729E0,5.2056403E0,1.4296704E1,7.178808E0,3.3118374E1,1.22019825E1,3.9761218E2,9.806519E1,1.4635693E2,9.532244E1,6.014228E1,1.2935503E2,5.820962E2,1.6823702E1,2.4350933E1,1.182417E1,7.17508E1,1.9420998E0,3.7934258E1,1.3997443E0,6.094817E0,2.471364E0,3.2237952E0,3.5504013E1,5.2587266E0,1.9200814E0,2.9303467E0,9.271636E0,3.9810875E1,3.5780133E2,5.7580585E1,4.0484604E1,1.3870189E2,7.655045E0,2.4806952E1,7.051549E1,9.186282E0,5.0955997E1,1.4048611E1,1.1530642E2,3.003984E1,5.5205634E2],"tree_param":{"num_deleted":"0","num_feature":"2560","num_nodes":"107","size_leaf_vector":"0"}},{"base_weights":[-2.460753E-2,3.588941E-1,-7.1438886E-2,5.167909E-1,-6.480208E-1,-3.7047964E-2,-7.0480955E-1,6.7147267E-1,-2.5552866E-1,1.957599E-2,-1.3410757E0,3.3656769E-3,-5.151888E-1,-1.1962962E0,-1.8243523E-2,-3.9431944E-1,7.25199E-1,-1.051589E0,4.349473E-1,-1.1153057E0,4.418453E-1,-1.1151007E0,1.810769E-2,4.9754235E-1,-1.1514127E0,-1.1513689E0,4.7628015E-1,-1.0905463E0,5.9700364E-1,7.44879E-1,-6.819886E-1,-1.3472704E0,3.34796E-2,6.4048374E-1,-9.1716695E-1,5.295058E-1,1.1498025E-1,3.882732E-2,-8.0046964E-1,7.472645E-1,-1.1384442E0,-1.2141248E0,2.3061284E-1,-9.7266847E-1,8.423563E-1,5.897532E-1,9.2890906E-1,-8.268351E-1,6.9504905E-1,8.847477E-1,4.2378446E-1,7.577236E-1,-2.8995361E-2,-4.2405206E-1,7.384959E-2,-1.1807045E0,9.876256E-1,-9.404057E-1,8.765219E-1,9.47888E-1,-5.8849496E-1,-1.1275132E0,7.100648E-1,9.8061574E-1,-1.5452465E-1,-8.453731E-2,6.004302E-1,8.606974E-1,2.7527794E-1,1.8691134E-1,-1.0856924E0,-2.7819365E-1,1.1776219E-1,1.0074042E0,4.730948E-1],"categories":[],"categories_nodes":[],"categories_segments":[],"categories_sizes":[],"default_left":[true,true,true,true,true,true,true,true,true,true,false,true,true,false,true,true,true,true,true,false,true,false,true,true,true,false,true,false,false,true,false,false,true,true,false,true,false,true,true,true,false,false,false,false,true,true,true,false,false,false,true,true,false,true,true,false,false,false,true,false,false,false,false,false,false,false,false,false,false,false,false,false,false,false,false],"id":14,"left_children":[1,3,5,7,9,11,13,15,17,19,-1,21,23,-1,25,27,29,31,33,-1,35,-1,37,39,41,-1,43,-1,-1,45,-1,-1,47,49,-1,51,-1,53,55,57,-1,-1,-1,-1,59,61,63,-1,-1,-1,65,67,-1,69,71,-1,-1,-1,73,-1,-1,-1,-1,-1,-1,-1,-1,-1,-1,-1,-1,-1,-1,-1,-1],"loss_changes":[3.434186E1,3.3420597E1,3.708231E1,2.1728577E1,1.3283429E1,3.1246311E1,2.956596E1,8.910271E0,1.7405811E1,7.9591928E0,0E0,2.4619413E1,8.1771935E1,0E0,2.1616306E1,6.0868354E0,4.488594E0,4.7340164E0,5.372914E0,0E0,2.8499937E-1,0E0,2.502225E1,2.100082E1,7.014229E0,0E0,1.507803E1,0E0,0E0,3.5126266E0,0E0,0E0,2.911329E0,4.4742012E-1,0E0,1.1998558E0,0E0,2.3343836E1,2.5929235E1,1.0290424E1,0E0,0E0,0E0,0E0,3.8791838E0,1.7311907E1,3.6985855E0,0E0,0E0,0E0,9.6233547E-1,9.081817E-2,0E0,4.115268E1,2.0713364E1,0E0,0E0,0E0,1.678997E0,0E0,0E0,0E0,0E0,0E0,0E0,0E0,0E0,0E0,0E0,0E0,0E0,0E0,0E0,0E0,0E0],"parents":[2147483647,0,0,1,1,2,2,3,3,4,4,5,5,6,6,7,7,8,8,9,9,11,11,12,12,14,14,15,15,16,16,17,17,18,18,20,20,22,22,23,23,24,24,26,26,29,29,32,32,33,33,35,35,37,37,38,38,39,39,44,44,45,45,46,46,50,50,51,51,53,53,54,54,58,58],"right_children":[2,4,6,8,10,12,14,16,18,20,-1,22,24,-1,26,28,30,32,34,-1,36,-1,38,40,42,-1,44,-1,-1,46,-1,-1,48,50,-1,52,-1,54,56,58,-1,-1,-1,-1,60,62,64,-1,-1,-1,66,68,-1,70,72,-1,-1,-1,74,-1,-1,-1,-1,-1,-1,-1,-1,-1,-1,-1,-1,-1,-1,-1,-1],"split_conditions":[-3.610722E-2,-9.583064E-3,6.787145E-2,6.8857685E-2,6.91977E-4,-1.1130008E-2,-5.8406413E-2,1.0765634E-2,-2.377975E-2,6.378934E-2,-2.6821515E-1,3.6278773E-2,-4.1366257E-2,-2.3925924E-1,4.0268293E-3,1.1142471E-2,4.6896327E-2,2.0524234E-2,7.2062816E-3,-2.2306113E-1,8.218315E-3,-2.2302015E-1,2.5555147E-2,1.1445798E-2,2.8179761E-2,-2.3027377E-1,6.906007E-2,-2.1810925E-1,1.1940073E-1,8.420827E-3,-1.3639772E-1,-2.694541E-1,-1.0790328E-2,-2.2666847E-2,-1.834334E-1,-6.1829574E-2,2.2996051E-2,-6.7549884E-2,-2.7099333E-3,-4.3407614E-5,-2.2768883E-1,-2.4282496E-1,4.612257E-2,-1.9453369E-1,-2.3399921E-2,5.7837768E-3,-2.8783237E-3,-1.6536702E-1,1.3900982E-1,1.7694955E-1,4.036798E-3,4.036798E-3,-5.7990723E-3,2.3475565E-2,-8.9031994E-2,-2.3614089E-1,1.9752513E-1,-1.8808115E-1,1.728631E-2,1.8957761E-1,-1.1769899E-1,-2.2550264E-1,1.4201297E-1,1.9612315E-1,-3.0904932E-2,-1.6907463E-2,1.2008604E-1,1.7213948E-1,5.505559E-2,3.738227E-2,-2.1713848E-1,-5.563873E-2,2.3552438E-2,2.0148085E-1,9.461896E-2],"split_indices":[2197,10,1214,1077,688,364,1827,35,1140,1311,0,1401,2397,0,1866,1280,634,1294,1286,0,1280,0,1890,2412,1290,0,1220,0,0,737,0,0,10,2,0,1,0,1058,30,251,0,0,0,0,1756,1285,1298,0,0,0,1280,1280,0,1941,1795,0,0,0,1280,0,0,0,0,0,0,0,0,0,0,0,0,0,0,0,0],"split_type":[0,0,0,0,0,0,0,0,0,0,0,0,0,0,0,0,0,0,0,0,0,0,0,0,0,0,0,0,0,0,0,0,0,0,0,0,0,0,0,0,0,0,0,0,0,0,0,0,0,0,0,0,0,0,0,0,0,0,0,0,0,0,0,0,0,0,0,0,0,0,0,0,0,0,0],"sum_hessian":[1.9097133E3,2.07101E2,1.7026123E3,1.7944806E2,2.765294E1,1.6159287E3,8.668361E1,1.4961371E2,2.9834352E1,1.4580133E1,1.3072807E1,1.4909065E3,1.25022125E2,5.0086292E1,3.6597317E1,6.875816E0,1.427379E2,1.361473E1,1.6219622E1,3.508784E0,1.107135E1,1.8424328E1,1.4724822E3,4.8321964E1,7.670016E1,1.0715698E1,2.588162E1,3.9802864E0,2.8955295E0,1.4123335E2,1.5045365E0,1.0509299E1,3.1054306E0,1.4536259E1,1.6833637E0,8.24122E0,2.8301291E0,1.4370603E3,3.5421947E1,4.2394035E1,5.927927E0,7.348703E1,3.2131255E0,4.885912E0,2.0995708E1,7.8916435E1,6.231692E1,1.241351E0,1.8640797E0,5.384265E0,9.151994E0,5.597308E0,2.6439123E0,1.00301094E2,1.3367592E3,2.9490532E1,5.931416E0,2.5694983E0,3.982454E1,1.9867897E1,1.1278113E0,4.618776E0,7.429766E1,5.956891E1,2.748012E0,2.4946718E0,6.657322E0,3.9666355E0,1.6306726E0,5.2520653E1,4.7780445E1,1.4765865E2,1.1891005E3,2.8938889E1,1.0885651E1],"tree_param":{"num_deleted":"0","num_feature":"2560","num_nodes":"75","size_leaf_vector":"0"}},{"base_weights":[-2.3005415E-2,3.5067135E-1,-5.937075E-2,-1.824337E-1,6.0589105E-1,-3.3311017E-2,-7.5422156E-1,-1.1293986E0,2.1217616E-1,-1.0819693E0,6.734926E-1,-8.044719E-2,3.2782793E-1,-1.1857954E0,5.712308E-1,-1.3527313E0,4.710618E-2,-1.2376481E0,4.1153276E-1,7.398442E-1,-4.6325615E-1,-3.124994E-2,-9.5412344E-1,5.505833E-1,-9.431155E-1,8.6415803E-1,-9.799643E-1,5.1862365E-1,-9.856803E-1,3.2695067E-1,8.5719687E-1,-1.2008055E0,5.2213895E-1,-3.4304406E-3,-8.48074E-1,7.396046E-1,-1.1162146E0,-1.1436738E0,6.5193874E-1,6.952718E-1,-1.3482E0,1.0287192E0,4.9634093E-1,2.887425E-1,7.408435E-1,-6.465126E-1,6.209795E-1,8.9225024E-1,3.3851716E-1,-5.957168E-2,3.5686502E-1,-1.1123711E0,8.5072273E-1,1.0681971E0,-6.5599126E-1,-1.0023493E0,7.097987E-1,-8.7440366E-1,5.316798E-1,9.736232E-1,-6.750818E-1,-1.2270012E0,5.059238E-1,7.5780857E-1,1.6611388E-1,9.427988E-1,6.08965E-1,-1.0129093E0,7.9576844E-1,-1.26179E0,-1.5336587E-2,-4.1946003E-1,7.779346E-1,-9.137722E-1,7.420103E-1],"categories":[],"categories_nodes":[],"categories_segments":[],"categories_sizes":[],"default_left":[true,true,true,true,true,true,true,true,true,false,true,true,true,false,true,false,false,false,true,true,true,true,true,true,true,true,false,true,false,true,true,false,false,true,true,true,false,false,true,false,false,false,false,true,true,true,true,true,true,true,true,false,false,false,false,false,true,false,false,false,false,false,false,false,false,false,false,false,false,false,false,false,false,false,false],"id":15,"left_children":[1,3,5,7,9,11,13,15,17,-1,19,21,23,-1,25,-1,-1,-1,27,29,31,33,35,37,39,41,-1,43,-1,45,47,-1,-1,49,51,53,-1,-1,55,-1,-1,-1,-1,57,59,61,63,65,67,69,71,-1,-1,-1,-1,-1,73,-1,-1,-1,-1,-1,-1,-1,-1,-1,-1,-1,-1,-1,-1,-1,-1,-1,-1],"loss_changes":[2.4996437E1,2.2308048E1,3.031962E1,2.0264156E1,1.3343731E1,2.7539627E1,3.530305E1,4.2467957E0,1.1685303E1,0E0,8.407036E0,6.1455288E1,5.340366E1,0E0,7.9093885E0,0E0,0E0,0E0,5.709783E0,4.6333084E0,5.359422E0,3.0793224E1,2.1751625E1,2.814774E1,1.9670452E1,3.1292343E-1,0E0,1.4680367E0,0E0,7.287964E0,1.1224174E0,0E0,0E0,2.6551842E1,2.098589E1,4.029542E0,0E0,0E0,1.518409E1,0E0,0E0,0E0,0E0,5.500961E0,5.964757E0,4.6822577E0,1.0559344E0,4.679947E-1,4.8665266E0,6.037467E1,5.8174217E1,0E0,0E0,0E0,0E0,0E0,8.348961E0,0E0,0E0,0E0,0E0,0E0,0E0,0E0,0E0,0E0,0E0,0E0,0E0,0E0,0E0,0E0,0E0,0E0,0E0],"parents":[2147483647,0,0,1,1,2,2,3,3,4,4,5,5,6,6,7,7,8,8,10,10,11,11,12,12,14,14,18,18,19,19,20,20,21,21,22,22,23,23,24,24,25,25,27,27,29,29,30,30,33,33,34,34,35,35,38,38,43,43,44,44,45,45,46,46,47,47,48,48,49,49,50,50,56,56],"right_children":[2,4,6,8,10,12,14,16,18,-1,20,22,24,-1,26,-1,-1,-1,28,30,32,34,36,38,40,42,-1,44,-1,46,48,-1,-1,50,52,54,-1,-1,56,-1,-1,-1,-1,58,60,62,64,66,68,70,72,-1,-1,-1,-1,-1,74,-1,-1,-1,-1,-1,-1,-1,-1,-1,-1,-1,-1,-1,-1,-1,-1,-1,-1],"split_conditions":[-3.7328307E-2,2.5758304E-4,-5.178542E-2,6.378934E-2,-5.7341598E-2,1.5992833E-2,8.423631E-2,1.2697537E-2,-4.9875926E-2,-2.1639386E-1,8.762467E-2,3.260497E-2,3.8433623E-2,-2.3715909E-1,-1.2746184E-2,-2.705463E-1,9.421236E-3,-2.4752963E-1,6.7949995E-2,9.576826E-2,-9.2367325E-3,-2.3242215E-2,-2.9168136E-2,7.200783E-2,-8.393485E-2,-1.5088002E-3,-1.9599287E-1,2.864925E-2,-1.9713606E-1,6.378934E-2,2.1979185E-2,-2.401611E-1,1.0442779E-1,-2.9333703E-2,1.4386126E-2,-2.500616E-2,-2.2324292E-1,-2.2873476E-1,-2.744385E-2,1.3905436E-1,-2.6964E-1,2.0574383E-1,9.926819E-2,4.036798E-3,8.218315E-3,-7.2329015E-2,8.218315E-3,6.559113E-2,6.378934E-2,-3.927224E-2,4.9960114E-2,-2.2247422E-1,1.7014454E-1,2.1363942E-1,-1.3119826E-1,-2.0046985E-1,6.353226E-2,-1.7488073E-1,1.0633596E-1,1.9472465E-1,-1.3501637E-1,-2.4540024E-1,1.0118476E-1,1.5156172E-1,3.3222776E-2,1.8855976E-1,1.21792994E-1,